SVM-light Version V6.20
0 # kernel type
3 # kernel parameter -d 
1 # kernel parameter -g 
1 # kernel parameter -s 
1 # kernel parameter -r 
empty# kernel parameter -u 
899 # highest feature index 
33 # number of training documents 
2 # number of support vectors plus 1 
0 # threshold b, each following line is a SV (starting with alpha*y)
1 1:-0.009626409 2:-0.00053737481 3:-0.0070464988 4:-0.00053737481 9:0.014523676 10:0.00911202 11:0.011328018 12:0.00911202 13:0.04193734 14:0.026424058 15:0.018781044 16:0.026424058 21:0.020368399 22:-0.00029203613 23:0.0054521891 24:0.0042780959 25:0.0074355607 26:0.014547949 27:0.0052368427 28:0.014547949 33:0.012295227 34:-0.0042326022 35:0.0042113326 36:-4.5248558e-05 41:-0.010525482 42:0.027475342 43:0.011074427 44:0.027475342 45:-0.020265637 46:0.0065784017 47:-0.012947048 48:0.0065784017 49:0.02374723 50:-0.00085213792 51:0.013017772 52:0.0041004797 53:0.02528487 54:0.014214535 55:0.018555826 56:0.014214535 61:-0.0064849085 62:0.013004032 63:0.02696665 64:0.013004032 65:-0.037339594 66:-0.019765215 67:-0.019325195 68:-0.019765215 69:0.034813419 70:0.010340771 71:0.025238764 72:0.011284426 73:0.012605693 74:0.0063406946 75:0.01191095 76:0.0063406946 81:0.0027402195 82:0.030163761 83:0.038143314 84:0.030163761 85:-0.015941937 86:-0.00098667119 87:0.0011471529 88:-0.00098667119 89:0.021130852 90:-0.0030794425 91:0.011539219 92:0.00010636468 93:0.0120757 94:0.00071590283 95:0.007551312 96:0.00071590283 97:0.087013222 98:-0.065311871 99:-0.066559516 100:-0.057947107 101:0.1338356 102:0.019594749 103:-0.056923494 104:0.019594749 105:0.079081282 106:-0.056309488 107:-0.05568175 108:-0.042559903 109:-0.073001787 110:-0.065048903 111:0.026803557 112:-0.065069214 113:-0.14408709 114:-0.14408709 115:-0.092847355 116:-0.14408709 117:0.073084719 118:0.028153718 119:0.06096473 120:0.039717603 121:0.033391353 122:-0.047800787 123:-0.053578973 124:-0.04606311 125:0.061792042 126:-0.052448802 127:-0.075492956 128:-0.052448802 129:0.056618117 130:-0.065893948 131:-0.062424451 132:-0.063652262 133:0.017886778 134:-0.011504467 135:-0.020182149 136:-0.011504467 137:-0.012239019 138:-0.020123595 139:0.015126375 140:-0.013323633 141:-0.030929387 142:-0.029928422 143:-0.0027244317 144:-0.029025273 145:0.1336789 146:0.11261529 147:0.13443136 148:0.11559816 149:0.10974298 150:0.066922173 151:0.10616013 152:0.067796506 153:0.023869127 154:-0.0086429901 155:-0.033722769 156:-0.0086429901 157:0.1010584 158:-0.015661756 159:-0.041684881 160:0.0077923415 161:0.10361962 162:-0.043663565 163:-0.043797158 164:-0.04285074 165:0.08789476 166:0.0067474572 167:0.044101823 168:0.030148992 169:0.069885656 170:-0.079834476 171:-0.0078581432 172:-0.074492499 173:0.026893103 174:-0.015969645 175:-0.033516526 176:-0.015969645 177:0.066228077 178:0.027178736 179:-0.017899301 180:0.023987608 181:0.10099237 182:-0.013471643 183:-0.0069572888 184:-0.013724556 185:0.083112232 186:0.068704292 187:0.081921406 188:0.08491955 189:0.036328748 190:-0.058075223 191:0.018354088 192:-0.055146564 193:0.024335176 194:0.024335176 195:0.024335176 196:0.024335176 197:0.018554881 198:0.018554881 199:0.018554881 200:0.018554881 201:0.072884612 202:0.072884612 203:0.072884612 204:0.072884612 205:0.083760686 206:0.083760686 207:0.083760686 208:0.083760686 213:0.016294003 214:0.016294003 215:0.016294003 216:0.016294003 217:0.023325987 218:0.023325987 219:0.023325987 220:0.023325987 221:0.059698898 222:0.059698898 223:0.059698898 224:0.059698898 225:0.077837735 226:0.077837735 227:0.077837735 228:0.077837735 233:0.023981147 234:0.023981147 235:0.023981147 236:0.023981147 237:0.025398776 238:0.025398776 239:0.025398776 240:0.025398776 241:0.067212343 242:0.067212343 243:0.067212343 244:0.067212343 245:0.074793458 246:0.074793458 247:0.074793458 248:0.074793458 253:0.0497014 254:0.0497014 255:0.0497014 256:0.0497014 257:0.018333301 258:0.018333301 259:0.018333301 260:0.018333301 261:0.022308003 262:0.022308003 263:0.022308003 264:0.022308003 265:0.016944718 266:0.016944718 267:0.016944718 268:0.016944718 273:0.054589354 274:0.054589354 275:0.054589354 276:0.054589354 277:0.018721659 278:0.018721659 279:0.018721659 280:0.018721659 281:0.025205949 282:0.025205949 283:0.025205949 284:0.025205949 285:0.019969629 286:0.019969629 287:0.019969629 288:0.019969629 301:0.019305592 302:0.019305592 303:0.019305592 304:0.019305592 305:0.012206163 306:0.012206163 307:0.012206163 308:0.012206163 373:0.022205353 374:-0.08267393 375:-0.0023215967 376:0.045805532 377:0.033362485 378:-0.024799217 379:-0.0078448253 380:0.06184056 381:-0.0026221538 382:0.093267165 383:0.0012256671 384:0.14498404 385:0.017782355 386:0.043204855 387:-0.03852354 388:-0.050909463 389:0.026366156 390:-0.058180079 391:0.0093431519 392:0.037712213 393:0.050808866 394:-0.012456777 395:-0.028399233 396:-0.0088962289 397:0.038529579 398:-0.029945223 399:-0.079975545 400:0.04185703 401:0.056631308 402:0.0025199105 403:0.016471282 404:-0.064623512 405:0.10314545 406:-0.028804034 407:-0.055000618 408:-0.048479926 409:0.073345356 410:-0.00062476477 411:-0.096480899 412:-0.058198556 413:-0.032912936 414:0.022100957 415:0.060587801 416:-0.11425468 417:0.015285349 418:-0.025560658 419:-0.021544775 420:-0.044970773 421:0.02293632 422:0.036701798 423:-0.016351273 424:0.049927 425:0.088978961 426:0.085505918 427:0.030098883 428:0.021568624 429:-0.085418671 430:-0.011481033 431:0.013301508 432:0.047054272 433:-0.047083404 434:0.011824475 435:0.03119709 436:-0.028733727 437:-0.063188843 438:0.01756236 439:0.01940343 440:-0.030634448 441:-0.011978449 442:0.006699597 443:0.010971476 444:-0.0649563 445:-0.013645469 446:-0.046374939 447:-0.011763524 448:-0.035722427 449:-0.041305069 450:-0.0078752898 451:0.038361251 452:0.056148577 453:-0.019678028 454:-0.01061576 455:-0.10481978 456:0.048494387 457:0.044150066 458:0.0569048 459:0.063553631 460:-0.022928389 461:0.09591224 462:0.0026797764 463:0.069725528 464:0.056296021 465:0.032046128 466:-0.02474957 467:-0.0098328609 468:0.057277355 469:0.016860383 470:-0.05157309 471:-0.032936294 472:0.024547283 473:-0.02460099 474:0.0015102226 475:0.042587224 476:0.026058367 477:0.023541471 478:0.063648559 479:-0.017051309 480:-0.082916632 481:0.01898255 482:0.026095971 483:0.10788433 484:0.14001742 485:0.021483378 486:-0.00052654702 487:-0.010082641 488:0.0042499462 489:0.0047774883 490:0.0012385178 491:0.011609133 492:0.13311921 493:-0.024951316 494:0.082566403 495:-0.0054789125 496:0.12984748 497:-0.041452199 498:-0.010738881 499:-0.11319884 500:-0.015237872 501:-0.11312756 503:-0.02823831 504:0.045547687 505:0.027186709 506:-0.12981911 507:-0.00044820874 508:-0.028075738 509:0.0050309463 510:-0.082945384 511:0.11726594 512:0.011744964 513:0.035861682 514:-0.042895969 515:-0.037460461 516:-0.050032742 517:-0.0097740982 518:0.026628194 519:0.0096549029 520:0.072315641 521:0.0036565873 522:-0.067891546 523:0.086231761 524:0.079038836 525:-0.021447064 526:-0.023245435 527:0.053941108 528:0.024061121 529:-0.075998321 530:-0.038551953 531:0.047871605 532:0.035220157 533:-0.10549685 534:0.0056729037 535:0.020677634 536:0.0050645336 537:-0.061327454 538:0.087571628 539:-0.010316172 540:0.084131829 541:-0.11570398 542:0.20414132 543:-0.00033354876 544:-0.024716796 545:0.022599295 546:0.032097112 547:0.041679077 548:0.068373024 549:0.07921499 550:-0.017514111 551:-0.06039137 552:-0.045386873 553:-0.049752176 554:0.040644597 555:0.02855915 556:0.015843676 557:-0.008162708 558:-0.022485247 559:0.011211679 560:-0.059948035 561:-0.014086558 562:-0.032287166 563:0.0075570769 564:-0.082094625 565:-0.043044958 566:0.0020180107 567:-0.0071315989 568:-0.067090057 569:-0.022594227 570:0.00079176697 571:0.026783584 572:-0.019086879 573:0.025112694 574:0.022439778 575:-0.0064763003 576:-0.0049957088 577:-0.025518514 578:0.10799178 579:0.097051851 580:0.0091696028 581:-0.000582318 582:0.0052784123 583:-0.012698524 584:-0.0059147631 585:0.039112575 586:0.040546231 587:0.0066730976 588:-0.018680476 589:0.005370826 590:0.023173649 591:-0.068048313 592:0.0031111212 593:-0.0038099925 594:0.052509796 595:-0.056650825 596:-0.0052768257 597:-0.02405984 598:0.065220498 599:0.0017917058 600:0.0055315271 601:-0.018766414 602:-0.055218421 603:0.023238191 604:-0.021211017 605:-0.073823139 606:-0.11223195 607:0.0080584651 608:0.015284928 609:-0.04771623 610:-0.071138367 611:-0.058075599 612:-0.052040949 613:-0.044668984 614:-0.064827017 615:0.061696094 616:0.017058328 617:0.025142428 618:-0.060860269 619:-0.045163862 620:0.060730252 621:-0.0267138 622:0.040369295 623:0.025085662 624:-0.043654036 625:0.00049491815 626:-0.079532124 627:-0.013805185 628:0.037764512 629:0.0012736733 630:-0.013764952 631:0.018873017 632:0.020283988 633:-0.048453379 634:0.00076419988 635:-0.083918773 636:0.042045023 637:0.044073407 638:0.010583518 639:-0.010228814 640:0.0052808742 641:0.0025049692 642:0.070252478 643:0.077870727 644:-0.044414777 645:0.028032377 646:-0.046715636 647:-0.062799945 648:0.039124925 649:-0.023588302 650:-0.018110221 651:-0.03385571 652:0.0080686035 653:-0.031149456 654:0.048345227 655:-0.059458796 656:-0.0013856152 657:-0.049872205 658:-0.0239788 659:0.067921862 660:0.039896991 661:-0.02562937 662:0.022783246 663:0.15508106 664:0.028460182 665:0.051505644 666:0.03361303 667:0.089188464 668:-0.059348162 669:0.12112582 670:0.019961502 671:-0.038136367 672:-0.03058061 673:0.032521389 674:0.017677417 675:0.022113856 676:-0.017329829 677:-0.048629675 678:0.032045849 679:0.013786583 680:-0.056191035 681:0.016120171 682:-0.0071726521 683:0.085025229 684:-0.12073723 685:0.051519845 686:0.085979484 687:0.060451515 688:-0.020158388 689:-0.035063542 690:-0.03147912 691:0.0026446877 692:0.017870553 693:0.064472534 694:0.026917377 695:-0.020306721 696:-0.028521426 697:0.022011654 698:0.025160363 699:0.038209647 700:0.047691822 701:-0.12315833 702:-0.0046208873 703:-0.036650874 704:-0.033574406 705:-0.11331823 706:0.013765462 707:0.053654794 708:-0.11944201 709:0.011292861 710:0.016404921 711:0.0016667244 712:0.010660596 713:-0.0092954263 714:-0.055333041 715:-0.01140459 716:0.0081922542 717:-0.084573202 718:-0.033315305 719:0.048737537 720:-0.063448101 721:-0.045416426 722:0.031727657 723:0.040308274 724:0.015424589 725:0.02352925 726:0.018611202 727:-0.0079946583 728:-0.031590708 729:0.040204987 730:0.10936084 731:-0.0083529633 732:-0.059290454 733:0.021662351 734:-0.056901075 735:-0.06747292 736:0.012356775 737:0.0032181281 738:-0.010883429 739:0.043656942 740:0.076417163 741:0.038890626 742:0.0052310713 743:0.17390138 744:-0.024380673 745:0.0084198778 746:-0.062914059 747:-0.013803261 748:0.091041304 749:-0.053949527 750:-0.029388975 751:0.012054233 752:-0.054345351 753:0.027486334 754:0.088789627 755:0.025324432 756:0.022110611 757:0.019127162 758:0.015205323 759:0.023471775 760:-0.010125447 761:-0.0080158217 762:-0.015770489 763:-0.035263989 764:-0.047830012 765:-0.044232864 766:-0.015961573 767:-0.00057526946 768:-0.023648309 769:0.052953735 770:-0.017212734 771:-0.0072796592 772:0.052962944 773:-0.0056145508 774:0.00272137 775:0.0058432361 776:-0.014106828 777:0.063077927 778:-0.016128303 779:0.056794025 780:-0.096502364 781:-0.033037897 782:-0.00954381 783:0.021948898 784:-0.055057555 785:0.019036498 786:0.093101919 787:-0.075458042 788:-0.072795853 789:0.0016828632 790:-0.011099966 791:-0.10282336 792:0.053478628 793:0.045388557 794:-0.0038502146 795:-0.02323233 796:-0.036393367 797:0.025022626 798:-0.071811788 799:-0.017094402 800:-0.054574627 801:-0.10897821 802:0.075799607 803:-0.052099399 804:-0.052739203 805:-0.060423471 806:-0.097080231 807:0.013782411 808:-0.044225253 809:-0.028133137 810:-0.037933964 811:-0.060272273 812:0.020294774 813:-0.038525131 814:-0.011330498 815:0.096443065 816:0.10023414 817:0.050330549 818:0.0065154736 819:0.043566138 820:0.046834666 821:0.050540693 822:0.016083961 823:0.050904751 824:-0.026646847 825:0.037914541 826:0.068339728 827:0.043280095 828:0.020017903 829:-0.015966617 830:-0.13489762 831:0.038415715 832:-0.0045041908 833:0.027941922 834:-0.028551649 835:-0.043848645 836:0.010617479 837:-0.035984159 838:-0.02224566 839:0.12586325 840:0.052774884 841:0.08734642 842:0.12587789 843:0.060103782 844:0.030442651 845:0.081333712 846:0.032121021 847:-0.079463236 848:0.0084734019 849:-0.14575076 850:0.19595335 851:0.019190278 852:0.22946493 853:0.054871354 854:0.065087281 855:0.16330104 856:-0.06987638 857:0.0077085821 858:-0.073533691 859:0.012945777 860:0.13670696 861:0.11553276 862:0.03912783 863:-0.0055705705 864:-0.033173211 865:-0.033486344 866:-0.033082504 867:0.073962495 868:-0.031958986 869:-0.036475312 870:-0.033748727 871:-0.031311635 873:-0.032573763 874:-0.035191052 875:-0.033295456 876:-0.03272821 877:-0.034218051 878:-0.033400603 879:-0.033213414 880:-0.033201005 881:-0.033320729 882:0.017351994 883:-0.0026351775 884:0.018906295 885:0.02080795 886:-0.11071134 887:-0.15203503 888:-0.095688857 889:-0.14164956 890:0.15278135 891:-0.17760289 892:0.091986701 893:0.07107494 894:-0.072659396 895:0.10918125 896:-0.045610785 897:-0.013681376 898:-0.058665935 #
