SVM-light Version V6.20
0 # kernel type
3 # kernel parameter -d 
1 # kernel parameter -g 
1 # kernel parameter -s 
1 # kernel parameter -r 
empty# kernel parameter -u 
883 # highest feature index 
39 # number of training documents 
2 # number of support vectors plus 1 
0 # threshold b, each following line is a SV (starting with alpha*y)
1 1:-0.015340506 2:-0.0033366012 3:-0.012840114 4:-0.0033366012 9:0.013054322 10:0.010445771 11:0.010402351 12:0.010445771 13:0.059331715 14:0.037383977 15:0.027933728 16:0.037383977 21:0.017871697 22:-0.0038898324 23:0.00086707214 24:0.0021459525 25:0.0075915689 26:0.016984912 27:0.0043250672 28:0.016984912 33:0.0086662788 34:-0.0086407214 35:-0.00022183135 36:-0.0031104865 41:-0.0088394061 42:0.039446853 43:0.020131594 44:0.039446853 45:-0.02504205 46:0.010346673 47:-0.015222966 48:0.010346673 49:0.026158774 50:0.00016336521 51:0.014857484 52:0.0067042974 53:0.031032542 54:0.019186683 55:0.022975819 56:0.019186683 61:-0.0018652041 62:0.026157489 63:0.03744081 64:0.026157489 65:-0.047410786 66:-0.024200263 67:-0.029595539 68:-0.024200263 69:0.047902744 70:0.022817554 71:0.038072642 72:0.024063833 73:0.020118073 74:0.014620727 75:0.020329619 76:0.014620727 81:0.0092885783 82:0.04800294 83:0.052674759 84:0.04800294 85:-0.017815806 86:0.0019356413 87:0.00058076775 88:0.0019356413 89:0.026158635 90:0.00097411667 91:0.016160365 92:0.0051816185 93:0.016880557 94:0.0047249538 95:0.011653689 96:0.0047249538 97:0.10502873 98:-0.07971561 99:-0.088411316 100:-0.068645008 101:0.16406286 102:0.011473699 103:-0.085468486 104:0.011473699 105:0.087680683 106:-0.055116776 107:-0.067238837 108:-0.035798863 109:-0.090186723 110:-0.07948485 111:0.038706403 112:-0.078904197 113:-0.16371328 114:-0.16371328 115:-0.065394238 116:-0.16371328 117:0.07076408 118:0.023616595 119:0.057152886 120:0.038861278 121:0.056701094 122:-0.032239404 123:-0.052013233 124:-0.031921651 125:0.081722587 126:-0.070866562 127:-0.098595694 128:-0.070866562 129:0.062727779 130:-0.067271039 131:-0.076079957 132:-0.066396117 133:0.031409916 134:-0.0077049551 135:-0.058153491 136:-0.0077049551 137:-0.023957146 138:-0.032119744 139:-0.010678597 140:-0.023203356 141:-0.044937644 142:-0.044441588 143:-0.027637389 144:-0.042975623 145:0.14149772 146:0.12491939 147:0.14448169 148:0.12539442 149:0.11565779 150:0.068497062 151:0.10944318 152:0.06920018 153:0.029336475 154:-0.0081692915 155:-0.041386873 156:-0.0081692915 157:0.10013966 158:-0.033907376 159:-0.046638481 160:0.0042068637 161:0.12131621 162:-0.048224915 163:-0.054895315 164:-0.046756703 165:0.086912163 166:0.0035437541 167:0.042826243 168:0.030233711 169:0.076396942 170:-0.086983651 171:-0.013783099 172:-0.079890855 173:0.040988177 174:-0.012856044 175:-0.053410333 176:-0.012856044 177:0.071640447 178:0.030568564 179:-0.02654616 180:0.025848886 181:0.11398461 182:-0.013561258 183:-0.012502517 184:-0.013378274 185:0.086314261 186:0.077909544 187:0.088859111 188:0.092597395 189:0.0347404 190:-0.058979038 191:0.01746832 192:-0.056202099 193:0.024583681 194:0.024583681 195:0.024583681 196:0.024583681 197:0.020109937 198:0.020109937 199:0.020109937 200:0.020109937 201:0.069460757 202:0.069460757 203:0.069460757 204:0.069460757 205:0.08024253 206:0.08024253 207:0.08024253 208:0.08024253 213:0.016926929 214:0.016926929 215:0.016926929 216:0.016926929 217:0.025503606 218:0.025503606 219:0.025503606 220:0.025503606 221:0.056888979 222:0.056888979 223:0.056888979 224:0.056888979 225:0.074479662 226:0.074479662 227:0.074479662 228:0.074479662 233:0.02428635 234:0.02428635 235:0.02428635 236:0.02428635 237:0.025457747 238:0.025457747 239:0.025457747 240:0.025457747 241:0.066121161 242:0.066121161 243:0.066121161 244:0.066121161 245:0.073250636 246:0.073250636 247:0.073250636 248:0.073250636 253:0.053183209 254:0.053183209 255:0.053183209 256:0.053183209 257:0.019617632 258:0.019617632 259:0.019617632 260:0.019617632 261:0.023271585 262:0.023271585 263:0.023271585 264:0.023271585 265:0.01755023 266:0.01755023 267:0.01755023 268:0.01755023 273:0.058413584 274:0.058413584 275:0.058413584 276:0.058413584 277:0.020033196 278:0.020033196 279:0.020033196 280:0.020033196 281:0.026553256 282:0.026553256 283:0.026553256 284:0.026553256 285:0.02096474 286:0.02096474 287:0.02096474 288:0.02096474 301:0.019229263 302:0.019229263 303:0.019229263 304:0.019229263 305:0.011741864 306:0.011741864 307:0.011741864 308:0.011741864 373:0.021584982 374:-0.081651442 375:-0.0040653083 376:0.04345778 377:0.057540368 378:-0.017548531 379:-0.015810259 380:0.056796402 381:-0.0086492421 382:0.11264968 383:-0.003834754 384:0.15988851 385:0.01262534 386:0.037149657 387:-0.034742951 388:-0.036590256 389:0.045042723 390:-0.066493616 391:0.014315034 392:0.046924852 393:0.062038027 394:-0.029756814 395:-0.012181169 396:0.011196725 397:0.048856001 398:-0.0052642412 399:-0.11005311 400:0.049471155 401:0.081159003 402:0.015673093 403:0.029365329 404:-0.059820846 405:0.094239466 406:-0.021104222 407:-0.065999515 408:-0.064464666 409:0.08745072 410:-0.00024738954 411:-0.066438101 412:-0.063790694 413:-0.029721782 414:0.023604326 415:0.06923718 416:-0.13274871 417:0.016689297 418:-0.02475509 419:-0.017168047 420:-0.036803305 421:0.021524128 422:0.047860477 423:-0.010908641 424:0.044093903 425:0.10456914 426:0.11149324 427:0.039146792 428:0.02851603 429:-0.10916122 430:-0.0040419046 431:0.024390684 432:0.068919599 433:-0.058212191 434:0.017275916 435:0.017961016 436:-0.02740531 437:-0.073091596 438:0.027776394 439:0.043182462 440:-0.032106355 441:-0.013081105 442:-0.0014642131 443:0.02125999 444:-0.062067319 445:-0.03475346 446:-0.054339461 447:-0.0089019788 448:-0.037063841 449:-0.046931315 450:-0.026416561 451:0.046671238 452:0.061644096 453:-0.021969866 454:-0.015625326 455:-0.10308378 456:0.057372905 457:0.041642774 458:0.068024121 459:0.079108492 460:-0.013337797 461:0.062427022 462:-0.010260211 463:0.093486175 464:0.076047249 465:0.026778338 466:-0.019654866 467:-0.0059709665 468:0.050546505 469:0.023961201 470:-0.05849262 471:-0.034709774 472:0.034119252 473:-0.010548349 474:0.026919847 475:0.075157687 476:0.058257692 477:0.054383893 478:0.078256778 479:0.030345649 480:-0.054611467 481:-0.0073038116 482:0.041154575 483:0.11714422 484:0.14997379 485:0.041993346 486:-0.014969811 487:-0.013752208 488:0.011017306 489:0.010748682 490:0.0033698932 491:0.0056870691 492:0.13494492 493:-0.0357478 494:0.093137205 495:-0.0019465259 496:0.14101203 497:-0.091702469 498:-0.01373711 499:-0.12926477 500:-0.020745905 501:-0.12216493 503:-0.027337812 504:0.055237133 505:0.04172926 506:-0.15315358 507:-0.0093016652 508:-0.019679649 509:0.013731059 510:-0.082588553 511:0.1503581 512:-0.01031648 513:0.041958239 514:-0.041229408 515:-0.041893106 516:-0.058721788 517:-0.024021486 518:0.03307876 519:0.015085528 520:0.068663359 521:0.0075234906 522:-0.060065228 523:0.10041363 524:0.098125748 525:-0.018920274 526:-0.03250318 527:0.055862736 528:0.025431469 529:-0.10941185 530:-0.048192531 531:0.054889683 532:0.023543898 533:-0.12741666 534:0.012012792 535:0.011495953 536:0.0028327284 537:-0.048729703 538:0.095573023 539:-0.011411839 540:0.10115716 541:-0.11962736 542:0.21573967 543:0.0073324642 544:0.00037512786 545:0.047981553 546:0.034045596 547:0.049031608 548:0.054629717 549:0.070186876 550:-0.027349165 551:-0.070547059 552:-0.058880828 553:-0.04545645 554:0.0428348 555:0.014482071 556:0.012076718 557:0.0085664736 558:-0.010992046 559:0.0037402851 560:-0.052915514 561:-0.024019929 562:-0.038005549 563:0.0069467481 564:-0.10518684 565:-0.044797592 566:-0.0022498397 567:-0.014079206 568:-0.094699919 569:-0.02455755 570:0.0011943867 571:0.036904205 572:-0.031979851 573:0.027759911 574:0.039243013 575:0.0022595336 576:-0.026581382 577:-0.034754042 578:0.11186502 579:0.096706353 580:-0.0003950742 581:0.029174557 582:0.013244314 583:-0.0090565216 584:0.012574461 585:0.030712675 586:0.043402847 587:-0.011427598 588:-0.013874921 589:0.009654019 590:0.0320848 591:-0.085208111 592:-0.0019132717 593:-0.0088956552 594:0.05887574 595:-0.070247389 596:-0.0049676765 597:-0.027799405 598:0.067231126 599:0.015397317 600:0.019710738 601:-0.020174161 602:-0.046117734 603:0.033747133 604:-0.046112824 605:-0.083439156 606:-0.10660657 607:0.0042746118 608:0.014636837 609:-0.052608479 610:-0.064521939 611:-0.053286314 612:-0.049217246 613:-0.051354647 614:-0.070566498 615:0.051545121 616:0.026010733 617:0.020724028 618:-0.077357449 619:-0.05866953 620:0.068835706 621:-0.021595724 622:0.047372784 623:0.0159446 624:-0.047884796 625:0.0047687995 626:-0.083458468 627:-0.019632451 628:0.028211454 629:-0.0020059289 630:-0.013174752 631:0.025900213 632:0.020261709 633:-0.048443355 634:0.014645826 635:-0.089751787 636:0.042417578 637:0.035948072 638:0.015632778 639:0.00037459435 640:0.0027055582 641:0.007199151 642:0.06874194 643:0.080342919 644:-0.058268666 645:0.037304476 646:-0.05469643 647:-0.045233175 648:0.048014749 649:-0.029099083 650:-0.022029204 651:-0.048993852 652:0.0089039579 653:-0.021815369 654:0.056309793 655:-0.10751852 656:-0.01251598 657:-0.061101776 658:-0.013749163 659:0.066562973 660:0.027955467 661:-0.024288727 662:0.029719874 663:0.17302404 664:0.031797476 665:0.060352165 666:0.044464666 667:0.076748587 668:-0.060627855 669:0.11630476 670:0.024538616 671:-0.041160151 672:-0.042992845 673:0.042946577 674:0.026802139 675:0.02607145 676:-0.035026599 677:-0.037900332 678:0.040516194 679:0.02163738 680:-0.069126859 681:0.016411489 682:-0.021708164 683:0.082617275 684:-0.1193647 685:0.064573981 686:0.10367025 687:0.051383913 688:-0.016874777 689:-0.040369175 690:-0.024438128 691:-0.013057943 692:0.006077487 693:0.075560011 694:0.018276697 695:-0.0065715685 696:-0.024792586 697:0.00078986585 698:0.033186294 699:0.018509461 700:0.044244397 701:-0.14007954 702:0.0044741575 703:-0.049958047 704:-0.034643341 705:-0.1119851 706:0.012440779 707:0.066699512 708:-0.12495787 709:0.010676489 710:0.027788427 711:-0.0049431361 712:0.0044357055 713:0.0064342027 714:-0.044461995 715:-0.014782362 716:0.003155458 717:-0.07336808 718:-0.037903801 719:0.049416658 720:-0.076557934 721:-0.053671878 722:0.026936123 723:0.029709896 724:0.027275316 725:0.025269104 726:0.022105671 727:0.01836485 728:-0.04565917 729:0.061623212 730:0.10914849 731:-0.016690142 732:-0.067787796 733:0.026884019 734:-0.043009818 735:-0.073953778 736:0.003751321 737:-0.020506432 738:-0.011292883 739:0.049895458 740:0.086774074 741:0.041668952 742:0.0084762946 743:0.17882401 744:-0.012069475 745:-0.0095037948 746:-0.083791867 747:-0.0026898989 748:0.097716667 749:-0.07497102 750:-0.014206208 751:0.01407348 752:-0.042983316 753:0.026522692 754:0.067230023 755:0.020049023 756:0.029804586 757:0.027630983 758:0.013834616 759:0.042284366 760:-0.0088052591 761:-0.0067856335 762:-0.030489579 763:-0.039115325 764:-0.053145014 765:-0.06973356 766:-0.017186463 767:0.0012849908 768:-0.034542702 769:0.06438797 770:-0.012503466 771:0.0031342495 772:0.042890448 773:0.0022961281 774:0.0078269141 775:0.037678592 776:0.0037565497 777:0.077147499 778:-0.022858519 779:0.051890008 780:-0.11145689 781:-0.037092324 782:0.0011923119 783:0.032305233 784:-0.067708969 785:0.016155776 786:0.086895131 787:-0.088202141 788:-0.075831577 789:0.012305347 790:-0.026733639 791:-0.10881931 792:0.048834916 793:0.049464878 794:0.0067096492 795:-0.055142596 796:-0.03620296 797:0.029291881 798:-0.063579291 799:-0.0033375693 800:-0.052485064 801:-0.11420481 802:0.075988486 803:-0.037016705 804:-0.041037228 805:-0.051290106 806:-0.099385649 807:0.011540361 808:-0.046413369 809:-0.02720448 810:-0.035410959 811:-0.075074643 812:0.030356513 813:-0.049189366 814:-0.033758704 815:0.10569773 816:0.10620117 817:0.060530055 818:0.0064291786 819:0.043325406 820:0.046495795 821:0.054907355 822:0.0080914879 823:0.040876199 824:-0.067242682 825:0.0011140835 826:0.025014792 827:0.057852589 828:0.025570294 829:-0.0087498585 830:-0.15246102 831:0.036523234 832:-0.0064172847 833:0.03218843 834:-0.030690925 835:-0.054914635 836:0.0039096633 837:-0.054822661 838:-0.052586686 839:0.14661734 840:0.048981182 841:0.11288071 842:0.11447068 843:0.046301097 844:0.013737485 845:0.053575654 846:0.055871371 847:-0.088773429 848:0.00067091483 849:-0.12702493 850:0.21045706 851:0.044337671 852:0.25293612 853:0.024544166 854:0.049767274 855:0.20054509 856:-0.06992691 857:-0.0087891994 858:-0.12779197 859:0.0173258 860:0.18464516 861:0.11043492 862:0.023272265 863:-0.010826584 864:-0.032884989 865:-0.03215782 866:-0.031735759 867:0.094553761 868:-0.029917216 869:-0.051542293 870:-0.034942783 871:-0.027149534 873:-0.037151571 874:-0.039955683 875:-0.034017611 876:-0.028762231 877:-0.033655193 878:-0.031963591 879:-0.031755276 880:-0.032042842 881:-0.032563556 882:0.023294006 #
