SVM-light Version V6.20
0 # kernel type
3 # kernel parameter -d 
1 # kernel parameter -g 
1 # kernel parameter -s 
1 # kernel parameter -r 
empty# kernel parameter -u 
486 # highest feature index 
30 # number of training documents 
2 # number of support vectors plus 1 
0 # threshold b, each following line is a SV (starting with alpha*y)
1 1:-0.049454235 2:-0.024620038 3:-0.039749827 4:-0.024620038 9:0.032257993 10:0.043882836 11:0.038783781 12:0.043882836 13:0.10202122 14:0.064281978 15:0.041347906 16:0.064281978 21:0.0033133449 22:-0.026748983 23:-0.024745394 24:-0.014261902 25:0.0059878053 26:0.025421163 27:0.0010419748 28:0.025421163 33:-0.0017662593 34:-0.02061516 35:-0.0093158158 36:-0.0091739409 41:-0.064247206 42:0.052915279 43:-0.0083419671 44:0.052915279 45:-0.1145878 46:-0.039032634 47:-0.099863753 48:-0.039032634 49:0.015965383 50:-0.013463865 51:0.0066460753 52:6.8297348e-05 53:0.038606059 54:0.02450514 55:0.029924454 56:0.02450514 61:-0.047869548 62:0.018669361 63:0.067690678 64:0.018669361 65:-0.15323164 66:-0.10521273 67:-0.10638161 68:-0.10521273 69:0.10031471 70:0.075554498 71:0.097557537 72:0.078132883 73:0.041061185 74:0.040102195 75:0.050463837 76:0.040102195 81:-0.023758052 82:0.065696917 83:0.092742644 84:0.065696917 85:-0.076864354 86:-0.036001705 87:-0.030397875 88:-0.036001705 89:0.026553404 90:-8.4173676e-05 91:0.02222685 92:0.0086204913 93:0.015072793 94:0.00060316612 95:0.012884786 96:0.00060316612 97:0.23398133 98:-0.1716634 99:-0.12982535 100:-0.1477913 101:0.2350599 102:-0.1275672 103:-0.22333024 104:-0.1275672 105:0.31501466 106:-0.1329411 107:-0.12274636 108:-0.11937162 109:-0.16107455 110:-0.16671154 111:0.16248137 112:-0.16910091 113:-0.21398063 114:-0.21398063 115:-0.046572991 116:-0.21398063 117:0.19376867 118:0.024996975 119:0.12388957 120:0.054578271 121:0.093018249 122:-0.14950183 123:-0.055042751 124:-0.14298323 125:0.12806958 126:-0.23455752 127:-0.23264483 128:-0.23455752 129:0.21391721 130:-0.24786116 131:-0.1676257 132:-0.25972244 133:0.12350154 134:0.031225789 135:-0.10063232 136:0.031225789 137:0.086217225 138:0.0065318183 139:-0.02144614 140:0.0015669027 141:-0.044704195 142:-0.10076124 143:-0.11449859 144:-0.096846193 145:0.37625372 146:0.25380075 147:0.35391986 148:0.21758941 149:0.36134008 150:0.13939887 151:0.27990985 152:0.13700712 153:0.043264978 154:-0.01758004 155:-0.074263714 156:-0.01758004 157:0.15291254 158:-0.076705389 159:-0.1266472 160:-0.045365002 161:0.22831354 162:-0.09654671 163:-0.096394643 164:-0.094893396 165:0.19288167 166:-0.13729301 167:0.11247029 168:-0.07488095 169:0.18089616 170:-0.19631355 171:0.02159542 172:-0.17853625 173:0.12361931 174:0.011936778 175:-0.095057093 176:0.011936778 177:0.20307998 178:0.10867265 179:-0.062995993 180:0.096561074 181:0.12618037 182:-0.12425557 183:-0.053703453 184:-0.1262511 185:0.2085546 186:0.042544194 187:0.21350618 188:0.088797428 189:0.089175798 190:-0.19367619 191:0.086687885 192:-0.16126786 193:0.047157865 194:0.047157865 195:0.047157865 196:0.047157865 197:0.036256317 198:0.036256317 199:0.036256317 200:0.036256317 201:0.12689838 202:0.12689838 203:0.12689838 204:0.12689838 205:0.14679675 206:0.14679675 207:0.14679675 208:0.14679675 213:0.030402618 214:0.030402618 215:0.030402618 216:0.030402618 217:0.043523442 218:0.043523442 219:0.043523442 220:0.043523442 221:0.095418893 222:0.095418893 223:0.095418893 224:0.095418893 225:0.13025507 226:0.13025507 227:0.13025507 228:0.13025507 233:0.051363934 234:0.051363934 235:0.051363934 236:0.051363934 237:0.049570326 238:0.049570326 239:0.049570326 240:0.049570326 241:0.14192787 242:0.14192787 243:0.14192787 244:0.14192787 245:0.1523703 246:0.1523703 247:0.1523703 248:0.1523703 253:0.063307539 254:0.063307539 255:0.063307539 256:0.063307539 257:0.023352182 258:0.023352182 259:0.023352182 260:0.023352182 261:0.015007447 262:0.015007447 263:0.015007447 264:0.015007447 265:0.0085708927 266:0.0085708927 267:0.0085708927 268:0.0085708927 273:0.069533601 274:0.069533601 275:0.069533601 276:0.069533601 277:0.023846854 278:0.023846854 279:0.023846854 280:0.023846854 281:0.02274227 282:0.02274227 283:0.02274227 284:0.02274227 285:0.016399877 286:0.016399877 287:0.016399877 288:0.016399877 301:-0.0073795901 302:-0.0073795901 303:-0.0073795901 304:-0.0073795901 305:-0.013975105 306:-0.013975105 307:-0.013975105 308:-0.013975105 373:0.15012421 374:-0.10251009 375:0.022125587 376:0.035065703 377:0.08429838 378:-0.047360092 379:-0.18406273 380:0.13719609 381:-0.10906152 382:0.34578255 383:0.014291639 384:0.38746065 385:0.032422874 386:-0.0019277527 387:-0.18052129 388:-0.078920797 389:0.12869518 390:-0.1684151 391:0.057516787 392:0.21620116 393:0.36907512 394:-0.11870448 395:-0.070734665 396:-0.0363832 397:0.18921605 398:0.064569511 399:-0.2312153 400:0.1673087 401:0.22213772 402:0.078543983 403:-0.042366005 404:-0.10607217 405:0.19070627 406:0.089933299 407:-0.24898659 408:-0.13196611 409:0.22160022 410:0.043106921 411:-0.10588882 412:-0.2018325 413:-0.0072288723 414:0.086750172 415:0.1145555 416:-0.27154922 417:0.061651096 418:-0.083574295 419:-0.075652525 420:-0.13938521 421:0.055355217 422:0.034333948 423:-0.062891237 424:-0.013034825 425:0.30343804 426:0.36899149 427:-0.10246867 428:0.15950671 429:-0.12211543 430:-0.06098713 431:0.19620343 432:0.11943065 433:-0.17587261 434:0.017837584 435:-0.040007349 436:-0.054982867 437:-0.12247095 438:0.11763166 439:0.1521064 440:0.0024327331 441:-0.051066846 442:0.030151946 443:0.027043672 444:-0.02609059 445:-0.057864387 446:-0.11366678 447:-0.081014797 448:-0.15116751 449:-0.053431626 450:-0.13408546 451:0.040443879 452:0.21619704 453:-0.036741212 454:-0.06547486 455:-0.20813012 456:0.17864543 457:0.22870997 458:0.00010098656 459:0.3314102 460:-0.14057972 461:0.058359865 462:0.015555108 463:0.39293623 464:0.21895108 465:0.1556102 466:-0.12218542 467:-0.054711904 468:0.14733565 469:0.042402778 470:-0.20134424 471:-0.0094985981 472:0.023975482 473:-0.068367995 474:0.0021918311 475:0.13332316 476:0.10189937 477:0.11399414 478:0.2647967 479:0.093864985 480:-0.29655147 481:0.059460532 482:0.079160921 483:0.17461294 484:0.30895177 485:-0.034178633 #
