SVM-light Version V6.20
0 # kernel type
3 # kernel parameter -d 
1 # kernel parameter -g 
1 # kernel parameter -s 
1 # kernel parameter -r 
empty# kernel parameter -u 
803 # highest feature index 
35 # number of training documents 
2 # number of support vectors plus 1 
0 # threshold b, each following line is a SV (starting with alpha*y)
1 1:-0.031666182 2:-0.01909912 3:-0.03084751 4:-0.01909912 9:-0.0033141749 10:-0.0033722667 11:-0.0061442619 12:-0.0033722667 13:0.10009637 14:0.063069142 15:0.05937475 16:0.063069142 21:0.0061098756 22:-0.012232808 23:-0.0096289571 24:-0.0059138495 25:0.0044213464 26:0.014255373 27:0.00028220579 28:0.014255373 33:-0.011887839 34:-0.027344149 35:-0.020798663 36:-0.021554463 41:-0.012128294 42:0.039503038 43:0.017949771 44:0.039503038 45:-0.048471317 46:-0.010592342 47:-0.04017318 48:-0.010592342 49:0.023023779 50:-0.00036739648 51:0.012355538 52:0.0064804 53:0.036606226 54:0.025838695 55:0.027883554 56:0.025838695 61:0.022136426 62:0.052818622 63:0.053648289 64:0.052818622 65:-0.074914932 66:-0.050615504 67:-0.075445458 68:-0.050615504 69:0.061492611 70:0.039491821 71:0.051739499 72:0.040796567 73:0.020627476 74:0.016507532 75:0.020364352 76:0.016507532 81:0.031762227 82:0.073762797 83:0.071226008 84:0.073762797 85:-0.024937194 86:-0.0042591165 87:-0.016687311 88:-0.0042591165 89:0.022575594 90:0.00020828356 91:0.012668205 92:0.0046131811 93:0.012813013 94:0.0017639371 95:0.0065634889 96:0.0017639371 97:0.16810699 98:-0.1070528 99:-0.10929456 100:-0.096208826 101:0.20552889 102:-0.052763909 103:-0.14894909 104:-0.052763909 105:0.13332115 106:-0.072616912 107:-0.10968773 108:-0.048228569 109:-0.11755877 110:-0.09336704 111:0.079719216 112:-0.08742743 113:-0.2016568 114:-0.2016568 115:-0.059249692 116:-0.2016568 117:0.077499628 118:0.035116319 119:0.069399029 120:0.053386126 121:0.071377613 122:-0.057378232 123:-0.062697828 124:-0.057961449 125:0.10348614 126:-0.15480666 127:-0.16092046 128:-0.15480666 129:0.063663967 130:-0.094203368 131:-0.13185875 132:-0.094228409 133:0.063962348 134:-0.0017990643 135:-0.059300914 136:-0.0017990643 137:0.039608706 138:0.031985018 139:0.051875431 140:0.030262873 141:-0.06311699 142:-0.056791417 143:-0.034879696 144:-0.055332202 145:0.20713045 146:0.17759658 147:0.19434144 148:0.16607925 149:0.14294273 150:0.077055842 151:0.12575544 152:0.072950006 153:0.032306433 154:-0.012489351 155:-0.050149083 156:-0.012489351 157:0.10515992 158:-0.081510842 159:-0.082936294 160:-0.039729841 161:0.14912267 162:-0.091824025 163:-0.081139229 164:-0.088891983 165:0.11290522 166:-0.028895658 167:0.047229521 168:0.0065937298 169:0.098475203 170:-0.13963439 171:-0.044449542 172:-0.13163 173:0.06903515 174:-0.011352733 175:-0.061010674 176:-0.011352733 177:0.1128134 178:0.06074826 179:-0.022734556 180:0.057889957 181:0.11214133 182:-0.055843029 183:-0.026710939 184:-0.054162834 185:0.12353944 186:0.095585987 187:0.11799733 188:0.11985101 189:0.035260148 190:-0.093680523 191:-0.0012386873 192:-0.091392115 193:0.023196513 194:0.023196513 195:0.023196513 196:0.023196513 197:0.021005921 198:0.021005921 199:0.021005921 200:0.021005921 201:0.063020222 202:0.063020222 203:0.063020222 204:0.063020222 205:0.073392086 206:0.073392086 207:0.073392086 208:0.073392086 213:0.017131889 214:0.017131889 215:0.017131889 216:0.017131889 217:0.027718227 218:0.027718227 219:0.027718227 220:0.027718227 221:0.054573916 222:0.054573916 223:0.054573916 224:0.054573916 225:0.070209272 226:0.070209272 227:0.070209272 228:0.070209272 233:0.02122142 234:0.02122142 235:0.02122142 236:0.02122142 237:0.023578674 238:0.023578674 239:0.023578674 240:0.023578674 241:0.054758221 242:0.054758221 243:0.054758221 244:0.054758221 245:0.062252559 246:0.062252559 247:0.062252559 248:0.062252559 253:0.048341941 254:0.048341941 255:0.048341941 256:0.048341941 257:0.017831838 258:0.017831838 259:0.017831838 260:0.017831838 261:0.023459785 262:0.023459785 263:0.023459785 264:0.023459785 265:0.018191293 266:0.018191293 267:0.018191293 268:0.018191293 273:0.053096198 274:0.053096198 275:0.053096198 276:0.053096198 277:0.018209573 278:0.018209573 279:0.018209573 280:0.018209573 281:0.025747079 282:0.025747079 283:0.025747079 284:0.025747079 285:0.02061096 286:0.02061096 287:0.02061096 288:0.02061096 301:0.022978932 302:0.022978932 303:0.022978932 304:0.022978932 305:0.015752057 306:0.015752057 307:0.015752057 308:0.015752057 373:0.048693042 374:-0.080058105 375:-0.01254316 376:0.060755175 377:0.058115803 378:0.0085764518 379:-0.022508753 380:0.11197548 381:-0.0085302358 382:0.16008826 383:0.027324682 384:0.17301163 385:-0.001790683 386:0.024149621 387:-0.11484834 388:-0.015749192 389:0.047227085 390:-0.11201658 391:0.040610813 392:0.070328355 393:0.14108174 394:-0.017396936 395:-0.0016245596 396:-0.036325768 397:0.036765669 398:0.053112611 399:-0.19880223 400:0.048866946 401:0.10012008 402:0.040721968 403:-0.014540145 404:-0.09005253 405:0.083245195 406:0.011221522 407:-0.11177308 408:-0.10954377 409:0.1275527 410:-0.00540268 411:-0.11102298 412:-0.1003515 413:0.0076544206 414:0.033435196 415:0.085658811 416:-0.16910799 417:0.040028825 418:-0.061545368 419:-0.0078697558 420:-0.067276977 421:0.059939478 422:0.059059683 423:-0.029776653 424:0.019553741 425:0.1410671 426:0.1727885 427:0.038560867 428:0.050149582 429:-0.12991898 430:-0.018647723 431:0.050152704 432:0.0622022 433:-0.0835502 434:0.054878049 435:0.029161571 436:-0.0030870293 437:-0.088985182 438:0.040761676 439:0.070601925 440:-0.033003408 441:-0.032326404 442:-0.016113862 443:0.0116874 444:-0.060096003 445:-0.048595954 446:-0.065359294 447:0.011160477 448:-0.061926648 449:-0.074258983 450:-0.044962589 451:0.058112342 452:0.075918876 453:-0.018207917 454:-0.037467919 455:-0.11897758 456:0.05785618 457:0.079566367 458:0.020594914 459:0.091652691 460:-0.020329302 461:0.061396528 462:-0.030552207 463:0.14364862 464:0.14247304 465:0.017186649 466:-0.075135857 467:-0.009666739 468:0.028301902 469:0.041069072 470:-0.060982797 471:-0.036745265 472:0.052395698 473:-0.011959518 474:0.028395694 475:0.11755114 476:0.095215946 477:0.10003391 478:0.14475615 479:-0.093019627 480:-0.11134365 481:0.035337485 482:0.02584864 483:0.1429162 484:0.21198533 485:-0.062240575 486:-0.049946848 487:0.041592222 488:0.010408654 489:0.073299311 490:0.0061513069 491:0.011098857 492:0.20018351 493:-0.020842124 494:0.17852657 495:0.0013399181 496:0.17441793 497:-0.048022885 498:0.0042496389 499:-0.080499642 500:0.01262743 501:-0.13800991 503:-0.052326478 504:0.0619362 505:0.063294716 506:-0.20288642 507:-0.013159601 508:-0.081174016 509:0.023147658 510:-0.048552815 511:0.1916627 512:-0.03354045 513:0.043527123 514:-0.072046451 515:-0.034952056 516:-0.051585022 517:-0.013322008 518:0.038313117 519:0.036121145 520:0.035162035 521:0.0070869373 522:-0.11720528 523:0.10097268 524:0.06876801 525:-0.0208099 526:-0.11611848 527:0.074332736 528:-0.0078315996 529:-0.092265055 530:-0.070539795 531:0.024542939 532:0.082538284 533:-0.15210295 534:0.016588803 535:0.023024794 536:-0.017400727 537:-0.035650488 538:0.12397582 539:0.0053455117 540:0.16172671 541:-0.12304232 542:0.28092679 543:0.026831858 544:-0.011523711 545:0.055285227 546:-0.0065254299 547:0.041451685 548:0.10524172 549:0.071294673 550:-0.016793892 551:-0.095489219 552:-0.078790627 553:-0.079195671 554:0.039059442 555:-0.047443844 556:0.012911259 557:0.0093514929 558:-0.051763605 559:-0.0015238564 560:-0.056502078 561:-0.029838454 562:-0.03982288 563:-0.011945411 564:-0.092075489 565:-0.055492222 566:0.016362211 567:-0.0083359852 568:-0.077969924 569:-0.064369164 570:-0.014130414 571:0.060107257 572:-0.067132443 573:0.0292903 574:0.055797845 575:-0.0025674158 576:-0.018267671 577:-0.083162829 578:0.1412459 579:0.11750518 580:0.048505351 581:0.031485397 582:0.046989199 583:0.027029302 584:0.0014943599 585:0.058264848 586:0.045432474 587:-0.032997146 588:-0.02620554 589:0.031421762 590:0.010470328 591:-0.086260781 592:0.018439909 593:-0.016270397 594:0.062977217 595:-0.071392052 596:0.027917432 597:0.012507816 598:0.070863284 599:0.029151969 600:0.046570692 601:-0.077864967 602:-0.084056586 603:0.057840955 604:-0.099712983 605:-0.094485641 606:-0.14935452 607:0.046657123 608:-0.0075406167 609:-0.040387932 610:-0.080416664 611:-0.078226253 612:-0.090098791 613:-0.0578035 614:-0.088517763 615:0.057991341 616:0.051223986 617:0.0075090853 618:-0.12164038 619:-0.022558855 620:0.10103596 621:-0.033957973 622:0.044223305 623:-0.011437654 624:-0.030787036 625:0.00059906085 626:-0.12633507 627:-0.028585106 628:0.038122837 629:0.022358021 630:-0.01142442 631:0.0078064059 632:-0.019718127 633:-0.068950154 634:0.030170815 635:-0.063591428 636:0.028504832 637:0.035396237 638:0.017127451 639:0.01338558 640:0.023121854 641:0.0038677373 642:0.10025178 643:0.094681896 644:-0.069392033 645:0.041571643 646:-0.084974505 647:-0.076860301 648:0.070628248 649:-0.020916855 650:-0.039189603 651:-0.076097414 652:-0.0057959775 653:-0.041285701 654:0.1000442 655:-0.15125147 656:-0.030466266 657:-0.025920792 658:-0.012367635 659:0.14336735 660:-0.049984243 661:-0.0042862715 662:0.0841043 663:0.21035276 664:0.011020667 665:0.063208304 666:0.04727824 667:0.13276358 668:-0.053502336 669:0.15613864 670:0.013934946 671:-0.018246379 672:-0.019994391 673:0.05659331 674:0.043062557 675:-0.012582446 676:-0.038254283 677:-0.019153101 678:0.057824276 679:-0.026691945 680:-0.058460113 681:0.015635161 682:-0.0028677306 683:0.057444468 684:-0.15003346 685:0.091252781 686:0.16322632 687:0.057641853 688:-0.0067011043 689:-0.048901718 690:-0.042587742 691:-0.01960846 692:0.057718404 693:0.059791259 694:0.027449496 695:-0.014374685 696:-0.021944135 697:-0.02868139 698:0.067686558 699:0.031361189 700:0.04034454 701:-0.17736563 702:0.02392453 703:-0.038529351 704:-0.074879326 705:-0.13982767 706:0.027544865 707:0.081996657 708:-0.16583671 709:0.058534797 710:0.054195877 711:-0.014993419 712:0.016642744 713:-0.020554349 714:-0.068253003 715:-0.029181877 716:-0.013207275 717:-0.082227051 718:-0.0056171967 719:0.055175859 720:-0.066165224 721:-0.05197661 722:0.027829319 723:0.094948053 724:0.024864754 725:-0.011425036 726:0.0045107226 727:0.046059895 728:-0.035295498 729:0.092898265 730:0.11653223 731:-0.017113384 732:-0.08128611 733:0.038231026 734:-0.029832073 735:-0.095546529 736:0.011725403 737:0.0035075636 738:0.016107859 739:0.052571643 740:0.072969355 741:0.016047437 742:0.012300367 743:0.23200007 744:0.0089984071 745:-0.02930633 746:-0.087343857 747:-0.044890426 748:0.11280573 749:-0.050832625 750:-0.031531908 751:0.0058026984 752:-0.076588288 753:0.015117619 754:0.090277031 755:0.034338098 756:0.014555464 757:0.0085143391 758:0.032332797 759:0.0934458 760:0.060780093 761:0.036790792 762:-0.061890617 763:-0.042565458 764:-0.062185511 765:-0.075900137 766:-0.0049602119 767:0.029957825 768:-0.001920282 769:0.075753585 770:0.0065018553 771:0.0048977304 772:0.023273166 773:0.022251822 774:-0.001562027 775:0.060694456 776:0.024260437 777:0.082521722 778:-0.030254357 779:0.058307957 780:-0.10358152 781:-0.02779904 782:-0.006320097 783:0.059661813 784:-0.079335265 785:0.004272759 786:0.10525124 787:-0.10212746 788:-0.10298032 789:0.04709053 790:-0.045238703 791:-0.11873669 792:0.056935702 793:0.074561961 794:-0.051276188 795:-0.065721251 796:-0.033469528 797:0.026980141 798:-0.08279486 799:-0.0057488573 800:-0.081058376 801:-0.1013761 802:0.14576381 #
