SVM-light Version V6.20
0 # kernel type
3 # kernel parameter -d 
1 # kernel parameter -g 
1 # kernel parameter -s 
1 # kernel parameter -r 
empty# kernel parameter -u 
373 # highest feature index 
28 # number of training documents 
2 # number of support vectors plus 1 
0 # threshold b, each following line is a SV (starting with alpha*y)
1 1:-0.10505119 2:-0.041547079 3:-0.080235824 4:-0.041547079 9:-0.021731764 10:0.044298287 11:0.013107427 12:0.044298287 13:0.12176326 14:0.076721132 15:-0.0046306602 16:0.076721132 21:-0.0065539028 22:-0.046607312 23:-0.059476193 24:-0.014676303 25:-0.014038238 26:0.035655264 27:-0.026685337 28:0.035655264 33:-0.041171998 34:-0.053205539 35:-0.042394426 36:-0.02394893 41:-0.1010584 42:0.17478701 43:0.047444198 44:0.17478701 45:-0.17420195 46:0.014570631 47:-0.12597129 48:0.014570631 49:0.035489459 50:0.012171987 51:0.037627209 52:0.046775408 53:0.081654355 54:0.06779138 55:0.070551828 56:0.06779138 61:-0.22893801 62:-0.040523529 63:0.058537167 64:-0.040523529 65:-0.30890167 66:-0.18611135 67:-0.17126286 68:-0.18611135 69:0.11245283 70:0.10701665 71:0.13434176 72:0.11360989 73:0.041404698 74:0.061164029 75:0.072085932 76:0.061164029 81:-0.16274279 82:0.085970081 83:0.12004108 84:0.085970081 85:-0.18273798 86:-0.078247122 87:-0.065127991 88:-0.078247122 89:0.024748381 90:0.010945628 91:0.040841267 92:0.033204529 93:0.023259351 94:0.0090338858 95:0.028928053 96:0.0090338858 97:0.31948581 98:-0.19079655 99:-0.19448955 100:-0.15673792 101:0.33637297 102:-0.15533577 103:-0.37203598 104:-0.15533577 105:0.21753092 106:-0.047690559 107:-0.16510904 108:-0.033620495 109:-0.20990592 110:-0.24189386 111:0.004813578 112:-0.21889861 113:-0.15975292 114:-0.15975292 115:-0.03313287 116:-0.15975292 117:0.16799118 118:-0.2166204 119:0.051144619 120:-0.15066189 121:0.12920403 122:-0.28438476 123:-0.18019398 124:-0.28792194 125:0.25364906 126:-0.2380597 127:-0.37894729 128:-0.2380597 129:-0.068164393 130:-0.62401068 131:-0.51253641 132:-0.63734055 133:0.23786128 134:0.11299345 135:-0.1538085 136:0.11299345 137:0.22718917 138:0.11891271 139:0.025059666 140:0.1447821 141:0.12752089 142:-0.087041885 143:-0.15855965 144:-0.077371828 145:0.73715276 146:0.46320984 147:0.68774086 148:0.41119483 149:0.51728952 150:0.058392432 151:0.36130118 152:0.06934911 153:0.063345142 154:-0.008574212 155:-0.11249484 156:-0.008574212 157:0.26524663 158:0.0018435104 159:-0.089900278 160:0.05964794 161:0.39498815 162:-0.031123359 163:-0.089540109 164:-0.026195996 165:0.27454728 166:-0.021569934 167:0.20899752 168:0.058191307 169:0.19716273 170:-0.19843274 171:0.051509347 172:-0.1569376 173:0.22919635 174:0.083849728 175:-0.14428432 176:0.083849728 177:0.386204 178:0.24803451 179:-0.017619966 180:0.21613106 181:0.20678487 182:-0.27705204 183:-0.12679155 184:-0.27850226 185:0.32557818 186:0.16618413 187:0.34234509 188:0.20197332 189:-0.012908858 190:-0.55620116 191:-0.076121628 192:-0.48538744 193:0.072104238 194:0.072104238 195:0.072104238 196:0.072104238 197:0.063534744 198:0.063534744 199:0.063534744 200:0.063534744 201:0.13279897 202:0.13279897 203:0.13279897 204:0.13279897 205:0.16424641 206:0.16424641 207:0.16424641 208:0.16424641 213:0.049002383 214:0.049002383 215:0.049002383 216:0.049002383 217:0.077636763 218:0.077636763 219:0.077636763 220:0.077636763 221:0.089974605 222:0.089974605 223:0.089974605 224:0.089974605 225:0.1408339 226:0.1408339 227:0.1408339 228:0.1408339 233:0.079849809 234:0.079849809 235:0.079849809 236:0.079849809 237:0.074681915 238:0.074681915 239:0.074681915 240:0.074681915 241:0.1930511 242:0.1930511 243:0.1930511 244:0.1930511 245:0.20624106 246:0.20624106 247:0.20624106 248:0.20624106 253:0.062239267 254:0.062239267 255:0.062239267 256:0.062239267 257:0.022958132 258:0.022958132 259:0.022958132 260:0.022958132 261:-0.0027400043 262:-0.0027400043 263:-0.0027400043 264:-0.0027400043 265:-0.0085525876 266:-0.0085525876 267:-0.0085525876 268:-0.0085525876 273:0.068360277 274:0.068360277 275:0.068360277 276:0.068360277 277:0.023444457 278:0.023444457 279:0.023444457 280:0.023444457 281:0.010140328 282:0.010140328 283:0.010140328 284:0.010140328 285:0.0043321648 286:0.0043321648 287:0.0043321648 288:0.0043321648 301:-0.048969954 302:-0.048969954 303:-0.048969954 304:-0.048969954 305:-0.052260749 306:-0.052260749 307:-0.052260749 308:-0.052260749 #
