SVM-light Version V6.20
0 # kernel type
3 # kernel parameter -d 
1 # kernel parameter -g 
1 # kernel parameter -s 
1 # kernel parameter -r 
empty# kernel parameter -u 
473 # highest feature index 
29 # number of training documents 
2 # number of support vectors plus 1 
0 # threshold b, each following line is a SV (starting with alpha*y)
1 1:-0.055073351 2:-0.027866598 3:-0.044441827 4:-0.027866598 9:0.034203079 10:0.053560972 11:0.044663541 12:0.053560972 13:0.10386153 14:0.065441526 15:0.039025962 16:0.065441526 21:-0.012635403 22:-0.038354158 23:-0.03994032 24:-0.024674116 25:0.0038912899 26:0.02518123 27:-0.0015270453 28:0.02518123 33:-0.0098837074 34:-0.023936152 35:-0.01485591 36:-0.011401885 41:-0.071215369 42:0.057452239 43:-0.010041995 44:0.057452239 45:-0.12797202 46:-0.045107745 47:-0.1120583 48:-0.045107745 49:0.00017380757 50:-0.022592818 51:-0.005298743 52:-0.0077678487 53:0.027848516 54:0.016449172 55:0.020361865 56:0.016449172 61:-0.057329454 62:0.018898392 63:0.070369549 64:0.018898392 65:-0.16768166 66:-0.11507522 67:-0.11741684 68:-0.11507522 69:0.10753659 70:0.090968989 71:0.10979506 72:0.093793698 73:0.047086202 74:0.050087374 75:0.059764463 76:0.050087374 81:-0.031767886 82:0.069875292 83:0.096614473 84:0.069875292 85:-0.08516296 86:-0.040396459 87:-0.03547081 88:-0.040396459 89:0.020034708 90:0.00075989403 91:0.020248616 92:0.010296165 93:0.011679915 94:-1.7494574e-05 95:0.011272511 96:-1.7494574e-05 97:0.25438443 98:-0.17763275 99:-0.1459762 100:-0.15466514 101:0.24877732 102:-0.13310856 103:-0.24806125 104:-0.13310856 105:0.3662169 106:-0.1486578 107:-0.12993106 108:-0.14120606 109:-0.1386113 110:-0.14590347 111:0.19509797 112:-0.15167409 113:-0.20282094 114:-0.20282094 115:-0.045109279 116:-0.20282094 117:0.20762157 118:0.031851385 119:0.14571768 120:0.065123908 121:0.11875599 122:-0.15244973 123:-0.053093728 124:-0.14382435 125:0.14736682 126:-0.23451905 127:-0.25708309 128:-0.23451905 129:0.24926618 130:-0.26701322 131:-0.17274466 132:-0.27475706 133:0.1122456 134:0.015236286 135:-0.11382227 136:0.015236286 137:0.093026951 138:0.0052555818 139:-0.0030437892 140:0.0030044855 141:-0.04388513 142:-0.10201915 143:-0.11217763 144:-0.097717449 145:0.40096712 146:0.26561341 147:0.37942207 148:0.22984189 149:0.3805038 150:0.15360031 151:0.30025205 152:0.15466642 153:0.036475126 154:-0.020654749 155:-0.081605054 156:-0.020654749 157:0.17197557 158:-0.06647341 159:-0.14663251 160:-0.050168466 161:0.23569381 162:-0.10798448 163:-0.10795946 164:-0.10604203 165:0.22815457 166:-0.13668053 167:0.13750894 168:-0.067610562 169:0.20197164 170:-0.22546513 171:0.02695634 172:-0.20527591 173:0.11023939 174:-0.0033770779 175:-0.10553756 176:-0.0033770779 177:0.22056845 178:0.11998974 179:-0.060069047 180:0.10796195 181:0.1363523 182:-0.12528887 183:-0.048482057 184:-0.12742098 185:0.23047851 186:0.040500909 187:0.23074083 188:0.096674092 189:0.10263373 190:-0.21579573 191:0.092648238 192:-0.17343812 193:0.044462465 194:0.044462465 195:0.044462465 196:0.044462465 197:0.034268547 198:0.034268547 199:0.034268547 200:0.034268547 201:0.11510283 202:0.11510283 203:0.11510283 204:0.11510283 205:0.13356805 206:0.13356805 207:0.13356805 208:0.13356805 213:0.028334245 214:0.028334245 215:0.028334245 216:0.028334245 217:0.040562425 218:0.040562425 219:0.040562425 220:0.040562425 221:0.083781637 222:0.083781637 223:0.083781637 224:0.083781637 225:0.11656719 226:0.11656719 227:0.11656719 228:0.11656719 233:0.049807534 234:0.049807534 235:0.049807534 236:0.049807534 237:0.046836112 238:0.046836112 239:0.046836112 240:0.046836112 241:0.13687684 242:0.13687684 243:0.13687684 244:0.13687684 245:0.14554171 246:0.14554171 247:0.14554171 248:0.14554171 253:0.051178519 254:0.051178519 255:0.051178519 256:0.051178519 257:0.018878166 258:0.018878166 259:0.018878166 260:0.018878166 261:0.0066194935 262:0.0066194935 263:0.0066194935 264:0.0066194935 265:0.0015785077 266:0.0015785077 267:0.0015785077 268:0.0015785077 273:0.056211744 274:0.056211744 275:0.056211744 276:0.056211744 277:0.019278064 278:0.019278064 279:0.019278064 280:0.019278064 281:0.014534968 282:0.014534968 283:0.014534968 284:0.014534968 285:0.0095423255 286:0.0095423255 287:0.0095423255 288:0.0095423255 301:-0.019110747 302:-0.019110747 303:-0.019110747 304:-0.019110747 305:-0.023436338 306:-0.023436338 307:-0.023436338 308:-0.023436338 373:0.19906811 374:-0.11658104 375:0.03900953 376:0.05441368 377:0.074717738 378:-0.045710478 379:-0.18748833 380:0.16224085 381:-0.09919671 382:0.39501464 383:0.034551058 384:0.40026394 385:0.03679565 386:0.016279791 387:-0.15735053 388:-0.082634315 389:0.1326268 390:-0.19395338 391:0.024885643 392:0.22945932 393:0.36664218 394:-0.10451523 395:-0.065559864 396:-0.074536622 397:0.17480558 398:0.077199481 399:-0.22196507 400:0.15610145 401:0.20614104 402:0.10067404 403:-0.055563845 404:-0.13319165 405:0.20786433 406:0.069734864 407:-0.28054267 408:-0.15906529 409:0.26979479 410:0.07797914 411:-0.10530623 412:-0.19979188 413:0.001190019 414:0.05609959 415:0.11567457 416:-0.29960075 417:0.091322035 418:-0.074297473 419:-0.09048757 420:-0.16020797 421:0.067825198 422:0.058942363 423:-0.080347717 424:-0.012064378 425:0.33381793 426:0.37293148 427:-0.12950452 428:0.17679122 429:-0.13098139 430:-0.099441171 431:0.19064328 432:0.11205696 433:-0.196264 434:0.032454386 435:-0.023766376 436:-0.080293231 437:-0.15234089 438:0.089263089 439:0.17441043 440:0.017765632 441:-0.06407322 442:0.038116265 443:0.039901227 444:-0.07246346 445:-0.064802252 446:-0.097977683 447:-0.094120979 448:-0.14959615 449:-0.059146203 450:-0.12046284 451:0.023251178 452:0.20760545 453:-0.054645758 454:-0.094601393 455:-0.23461667 456:0.1856008 457:0.25236741 458:0.0029147863 459:0.34347212 460:-0.1588752 461:0.10563413 462:-0.034866177 463:0.40840745 464:0.24422958 465:0.13950504 466:-0.12173875 467:-0.062498379 468:0.14890592 469:0.073153697 470:-0.22379251 471:-0.017194279 472:0.030303631 #
