SVM-light Version V6.20
0 # kernel type
3 # kernel parameter -d 
1 # kernel parameter -g 
1 # kernel parameter -s 
1 # kernel parameter -r 
empty# kernel parameter -u 
498 # highest feature index 
34 # number of training documents 
2 # number of support vectors plus 1 
0 # threshold b, each following line is a SV (starting with alpha*y)
1 1:-0.052547853 2:-0.026469372 3:-0.042357221 4:-0.026469372 9:0.019912042 10:0.036500365 11:0.028955316 12:0.036500365 13:0.10146412 14:0.063930951 15:0.038922563 16:0.063930951 21:0.0071184114 22:-0.020208063 23:-0.020074142 24:-0.0070953295 25:0.0030516125 26:0.023458652 27:-0.0021420198 28:0.023458652 33:-0.0065139187 34:-0.021942889 35:-0.012259571 36:-0.009928423 41:-0.063475929 42:0.058057781 43:-0.0044196364 44:0.058057781 45:-0.11420428 46:-0.035091966 47:-0.09819714 48:-0.035091966 49:0.018462976 50:-0.0061732284 51:0.011810509 52:0.0080369432 53:0.042546533 54:0.030417502 55:0.034769151 56:0.030417502 61:-0.062324636 62:0.0097524291 63:0.058197726 64:0.0097524291 65:-0.16169423 66:-0.11126939 67:-0.1134617 68:-0.11126939 69:0.087145537 70:0.068129368 71:0.08774253 72:0.070836939 73:0.031303555 74:0.032976929 75:0.041625809 76:0.032976929 81:-0.03635297 82:0.059993379 83:0.084406354 84:0.059993379 85:-0.084519893 86:-0.041609872 87:-0.037434317 88:-0.041609872 89:0.020739403 90:-0.00067853107 91:0.019473214 92:0.0084622717 93:0.011428695 94:-0.0010174828 95:0.010409052 96:-0.0010174828 97:0.21771353 98:-0.16096108 99:-0.1316243 100:-0.14248516 101:0.24348989 102:-0.11186644 103:-0.21370174 104:-0.11186644 105:0.23318659 106:-0.12397492 107:-0.13360788 108:-0.10613333 109:-0.12700416 110:-0.11282625 111:0.15907829 112:-0.10301802 113:-0.22580005 114:-0.22580005 115:-0.050495848 116:-0.22580005 117:0.12536164 118:-0.00051534647 119:0.075074509 120:0.029127128 121:0.087863781 122:-0.11902777 123:-0.058923539 124:-0.11644744 125:0.13058986 126:-0.22476648 127:-0.2238009 128:-0.22476648 129:0.1343188 130:-0.21446019 131:-0.17083307 132:-0.22040465 133:0.11546661 134:0.025122829 135:-0.10028449 136:0.025122829 137:0.086606726 138:0.029642161 139:-0.02079585 140:0.0049347761 141:-0.048670828 142:-0.080826156 143:-0.10250381 144:-0.080382176 145:0.33588633 146:0.22261426 147:0.2954773 148:0.19109735 149:0.30205035 150:0.11352903 151:0.22326164 152:0.10769971 153:0.040344562 154:-0.01587983 155:-0.073062323 156:-0.01587983 157:0.13903269 158:-0.08005514 159:-0.11498477 160:-0.0417087 161:0.20706041 162:-0.099173687 163:-0.099145561 164:-0.097680286 165:0.17196749 166:-0.11559818 167:0.090947077 168:-0.06366758 169:0.15885608 170:-0.17683271 171:-0.00037549503 172:-0.16047695 173:0.11522316 174:0.0077368114 175:-0.094024509 176:0.0077368114 177:0.1830931 178:0.10586689 179:-0.060556516 180:0.088815697 181:0.11608466 182:-0.10839047 183:-0.052370887 184:-0.10798891 185:0.19887292 186:0.062302388 187:0.19434676 188:0.099403255 189:0.074320301 190:-0.15435524 191:0.067775168 192:-0.13342458 193:0.047192905 194:0.047192905 195:0.047192905 196:0.047192905 197:0.035802193 198:0.035802193 199:0.035802193 200:0.035802193 201:0.12208075 202:0.12208075 203:0.12208075 204:0.12208075 205:0.14591429 206:0.14591429 207:0.14591429 208:0.14591429 213:0.032306999 214:0.032306999 215:0.032306999 216:0.032306999 217:0.046249695 218:0.046249695 219:0.046249695 220:0.046249695 221:0.10179015 222:0.10179015 223:0.10179015 224:0.10179015 225:0.13878395 226:0.13878395 227:0.13878395 228:0.13878395 233:0.043551728 234:0.043551728 235:0.043551728 236:0.043551728 237:0.049043324 238:0.049043324 239:0.049043324 240:0.049043324 241:0.11028038 242:0.11028038 243:0.11028038 244:0.11028038 245:0.12851417 246:0.12851417 247:0.12851417 248:0.12851417 253:0.054454535 254:0.054454535 255:0.054454535 256:0.054454535 257:0.020086585 258:0.020086585 259:0.020086585 260:0.020086585 261:0.027087081 262:0.027087081 263:0.027087081 264:0.027087081 265:0.021132946 266:0.021132946 267:0.021132946 268:0.021132946 273:0.059809942 274:0.059809942 275:0.059809942 276:0.059809942 277:0.020512082 278:0.020512082 279:0.020512082 280:0.020512082 281:0.029464267 282:0.029464267 283:0.029464267 284:0.029464267 285:0.023662573 286:0.023662573 287:0.023662573 288:0.023662573 301:0.027460476 302:0.027460476 303:0.027460476 304:0.027460476 305:0.019199153 306:0.019199153 307:0.019199153 308:0.019199153 373:0.1095143 374:-0.099145755 375:-0.0096409433 376:0.026138958 377:0.076896325 378:-0.052478608 379:-0.16655165 380:0.1257686 381:-0.085328631 382:0.29371846 383:-0.0052170875 384:0.35659713 385:0.019722903 386:-0.011300735 387:-0.2129574 388:-0.047235701 389:0.059940968 390:-0.18025248 391:0.064217076 392:0.17433101 393:0.32273084 394:-0.082765751 395:-0.034778278 396:-0.049330071 397:0.16587798 398:0.060241174 399:-0.2503868 400:0.1715602 401:0.19282597 402:0.073360994 403:-0.018405786 404:-0.092774987 405:0.16352023 406:0.074259199 407:-0.2183523 408:-0.13747934 409:0.21091448 410:0.013472372 411:-0.15222281 412:-0.18105194 413:0.0036410221 414:0.085036866 415:0.10297462 416:-0.22648183 417:0.059934676 418:-0.096797645 419:-0.046713524 420:-0.093622997 421:0.079214707 422:0.017611163 423:-0.048371378 424:0.013425448 425:0.25656876 426:0.33492899 427:-0.043640282 428:0.13619871 429:-0.15405248 430:-0.039036348 431:0.17223333 432:0.13581531 433:-0.12756757 434:0.022981549 435:-0.021445379 436:-0.032492172 437:-0.091399983 438:0.11648452 439:0.1062202 440:-0.03583511 441:-0.044324882 442:0.04462951 443:0.0076998449 444:-0.019940218 445:-0.059884835 446:-0.13668928 447:-0.033617176 448:-0.12232903 449:-0.036053408 450:-0.083774798 451:0.075852752 452:0.18966356 453:-0.013947233 454:-0.040466543 455:-0.16608246 456:0.12752964 457:0.17738537 458:0.020181835 459:0.26832464 460:-0.092124797 461:0.030231236 462:0.036419615 463:0.33766302 464:0.21548355 465:0.14580135 466:-0.10711148 467:-0.041735504 468:0.12280326 469:0.021480262 470:-0.15020113 471:0.0047943043 472:0.041299645 473:-0.052581616 474:0.0068370961 475:0.13311607 476:0.10376514 477:0.11215398 478:0.16781165 479:0.011679843 480:-0.2380148 481:0.038459115 482:0.022109348 483:0.16024157 484:0.25282115 485:-0.071378581 486:-0.11706 487:-0.024763457 488:0.044307642 489:0.069145478 490:0.010284853 491:0.0047175307 492:0.37031186 493:-0.12935005 494:0.30189878 495:0.072680168 496:0.41719234 497:-0.24380016 #
