SVM-light Version V6.20
0 # kernel type
3 # kernel parameter -d 
1 # kernel parameter -g 
1 # kernel parameter -s 
1 # kernel parameter -r 
empty# kernel parameter -u 
1295 # highest feature index 
33 # number of training documents 
2 # number of support vectors plus 1 
0 # threshold b, each following line is a SV (starting with alpha*y)
1 1:-0.0075576841 2:0.001114318 3:-0.0043949061 4:0.001114318 9:0.012615825 10:0.0075331447 11:0.010148987 12:0.0075331447 13:0.028511733 14:0.017964797 15:0.0087952306 16:0.017964797 21:0.020460183 22:0.00028181463 23:0.0060061621 24:0.0046422528 25:0.0061953915 26:0.012981442 27:0.00437797 28:0.012981442 33:0.012802378 34:-0.0028867431 35:0.0054948316 36:0.0011084843 41:-0.01150631 42:0.025300818 43:0.0089741405 44:0.025300818 45:-0.016711667 46:0.0088028181 47:-0.0094952164 48:0.0088028181 49:0.023805764 50:0.00045049671 51:0.013918122 52:0.005175875 53:0.0236449 54:0.013131824 55:0.01767998 56:0.013131824 61:-0.016118981 62:0.0025163377 63:0.019791251 64:0.0025163377 65:-0.033582531 66:-0.016814517 67:-0.011362866 68:-0.016814517 69:0.02725788 70:0.0040367255 71:0.018807575 72:0.0049370853 73:0.0091190236 74:0.0031908376 75:0.0087556699 76:0.0031908376 81:-0.0065336078 82:0.019676024 83:0.029808039 84:0.019676024 85:-0.016982865 86:-0.002713789 87:0.0022479771 88:-0.002713789 89:0.019181687 90:-0.0037970734 91:0.010651566 92:-0.00075744005 93:0.010820659 94:3.2689801e-05 95:0.0070876596 96:3.2689801e-05 97:0.065685384 98:-0.055343874 99:-0.054026272 100:-0.050395299 101:0.10911973 102:0.022012793 103:-0.041628432 104:0.022012793 105:0.050643396 106:-0.051134668 107:-0.04936922 108:-0.041228589 109:-0.066579133 110:-0.059712537 111:0.0051896097 112:-0.060180977 113:-0.11837051 114:-0.11837051 115:-0.094815359 116:-0.11837051 117:0.072466068 118:0.039075889 119:0.06463778 120:0.049714852 121:0.014497947 122:-0.052014135 123:-0.054334596 124:-0.050135374 125:0.049934469 126:-0.037172463 127:-0.060591493 128:-0.037172463 129:0.038918991 130:-0.051321246 131:-0.046531249 132:-0.047189098 133:0.013088438 134:-0.0094223022 135:-0.0037107973 136:-0.0094223022 137:-0.0084244274 138:-0.016132854 139:0.014818807 140:-0.0098695969 141:-0.020122489 142:-0.021109929 143:0.0021068258 144:-0.020258591 145:0.12303641 146:0.10427865 147:0.12272435 148:0.10753824 149:0.10575245 150:0.071783625 151:0.10410114 152:0.072992541 153:0.021809814 154:-0.0071518109 155:-0.028035907 156:-0.0071518109 157:0.081510067 158:-0.012348245 159:-0.036147885 160:0.005396001 161:0.082076594 162:-0.036963321 163:-0.038877118 164:-0.036290739 165:0.069548108 166:0.0039578541 167:0.034427471 168:0.021397708 169:0.05306977 170:-0.062899001 171:-0.006483661 172:-0.058037873 173:0.021936033 174:-0.013146739 175:-0.023048924 176:-0.013146739 177:0.052275129 178:0.019085318 179:-0.016786616 180:0.017346187 181:0.080578111 182:-0.013102878 183:-0.010590217 184:-0.013386293 185:0.070662171 186:0.057996534 187:0.071723044 188:0.070663787 189:0.032250371 190:-0.039818782 191:0.023767224 192:-0.037364423 193:0.025062112 194:0.025062112 195:0.025062112 196:0.025062112 197:0.019098239 198:0.019098239 199:0.019098239 200:0.019098239 201:0.073188208 202:0.073188208 203:0.073188208 204:0.073188208 205:0.084606208 206:0.084606208 207:0.084606208 208:0.084606208 213:0.016823413 214:0.016823413 215:0.016823413 216:0.016823413 217:0.024083875 218:0.024083875 219:0.024083875 220:0.024083875 221:0.0599702 222:0.0599702 223:0.0599702 224:0.0599702 225:0.078801937 226:0.078801937 227:0.078801937 228:0.078801937 233:0.024519462 234:0.024519462 235:0.024519462 236:0.024519462 237:0.026144696 238:0.026144696 239:0.026144696 240:0.026144696 241:0.067678995 242:0.067678995 243:0.067678995 244:0.067678995 245:0.075724058 246:0.075724058 247:0.075724058 248:0.075724058 253:0.047199525 254:0.047199525 255:0.047199525 256:0.047199525 257:0.017410437 258:0.017410437 259:0.017410437 260:0.017410437 261:0.021215843 262:0.021215843 263:0.021215843 264:0.021215843 265:0.01612163 266:0.01612163 267:0.01612163 268:0.01612163 273:0.051841427 274:0.051841427 275:0.051841427 276:0.051841427 277:0.017779244 278:0.017779244 279:0.017779244 280:0.017779244 281:0.023958629 282:0.023958629 283:0.023958629 284:0.023958629 285:0.018985145 286:0.018985145 287:0.018985145 288:0.018985145 301:0.01840719 302:0.01840719 303:0.01840719 304:0.01840719 305:0.011659513 306:0.011659513 307:0.011659513 308:0.011659513 373:0.012635971 374:-0.073810421 375:-0.006077392 376:0.037768275 377:0.021857098 378:-0.035857063 379:-0.005834857 380:0.053948175 381:-0.0064229602 382:0.071373321 383:0.00195266 384:0.12203198 385:0.015713351 386:0.038024597 387:-0.030895434 388:-0.048671398 389:0.010209789 390:-0.051170707 391:-0.0057181567 392:0.030924277 393:0.041944612 394:-0.010468936 395:-0.034075767 396:-0.010472941 397:0.025860243 398:-0.041764148 399:-0.055828605 400:0.041528128 401:0.03638953 402:-0.012009026 403:0.014962266 404:-0.057120822 405:0.098842882 406:-0.030173358 407:-0.042446412 408:-0.024121836 409:0.0578002 410:-0.0076806536 411:-0.084532276 412:-0.043593921 413:-0.033437487 414:0.016611865 415:0.049881715 416:-0.08563596 417:0.015892522 418:-0.022233833 419:-0.018686911 420:-0.03862619 421:0.012888716 422:0.0261824 423:-0.018188801 424:0.051040784 425:0.06623999 426:0.067359604 427:0.022856398 428:0.02563023 429:-0.05641973 430:-0.012245417 431:0.018279426 432:0.044339146 433:-0.038846791 434:0.0045100735 435:0.023696577 436:-0.021436868 437:-0.048911549 438:0.022316197 439:0.0052869585 440:-0.024486357 441:-0.011907858 442:0.016364919 443:0.0042374446 444:-0.051454719 445:-0.0057250122 446:-0.045945697 447:-0.0048736837 448:-0.028923899 449:-0.028288869 450:0.0048205084 451:0.031438861 452:0.040855929 453:-0.013321841 454:-0.0010404465 455:-0.085296117 456:0.043088529 457:0.034990028 458:0.034639966 459:0.057030503 460:-0.026411176 461:0.09695895 462:0.016068893 463:0.057313964 464:0.027855694 465:0.032061644 466:-0.019198552 467:-0.0079673827 468:0.061573599 469:0.010814876 470:-0.045127772 471:-0.027554996 472:0.017305277 473:-0.028551919 474:-0.010186796 475:0.020090422 476:0.0068020876 477:0.0048390608 478:0.030150305 479:-0.041866723 480:-0.069678456 481:0.027641365 482:0.011250913 483:0.09842442 484:0.12156358 485:0.0075084069 486:0.0026766993 487:-0.0089931358 488:0.0050720219 489:0.0015893289 490:0.00014308789 491:0.01634052 492:0.10569769 493:-0.018368803 494:0.070036843 495:-9.2695358e-05 496:0.10447707 497:-0.019143285 498:-0.0020068537 499:-0.074079856 500:-0.0072764698 501:-0.089090645 503:-0.020172441 504:0.036468178 505:0.016447535 506:-0.093983375 507:0.0013122758 508:-0.020550765 509:0.0031217379 510:-0.07346189 511:0.085228473 512:0.018663654 513:0.020684576 514:-0.042789493 515:-0.043335713 516:-0.036021747 517:-0.0061190901 518:0.024027525 519:0.0094023887 520:0.065822393 521:-0.0014267116 522:-0.063292108 523:0.066823401 524:0.062900931 525:-0.0094267987 526:-0.021518532 527:0.045929104 528:0.020587005 529:-0.060181752 530:-0.032345857 531:0.039924983 532:0.031056831 533:-0.083932824 534:-0.00091003138 535:0.021739226 536:0.0079511991 537:-0.054648802 538:0.072398506 539:-0.0066148005 540:0.071880735 541:-0.091053151 542:0.17908795 543:0.0013896822 544:-0.032068171 545:0.013368622 546:0.026088681 547:0.041966233 548:0.062162776 549:0.077503294 550:-0.0098708626 551:-0.049652506 552:-0.035959277 553:-0.050952677 554:0.031224806 555:0.026689203 556:0.017666925 557:-0.011967428 558:-0.016757917 559:0.011308384 560:-0.044791132 561:-0.010797637 562:-0.03188511 563:0.011185652 564:-0.056373712 565:-0.032668307 566:-0.0028365492 567:0.0035912944 568:-0.048128996 569:-0.023215495 570:0.0070895669 571:0.010399377 572:-0.0067208363 573:0.019287368 574:0.016008491 575:-0.014371968 576:0.0063762013 577:-0.019804455 578:0.088426314 579:0.08121971 580:0.011851196 581:-0.00051698671 582:0.003717361 583:-0.014365156 584:-0.0079492899 585:0.031399496 586:0.030932814 587:0.01225913 588:-0.019556442 589:0.0078616114 590:0.018506275 591:-0.049186286 592:0.0056963908 593:-0.0017330818 594:0.047926441 595:-0.045753364 596:0.0027602431 597:-0.016830234 598:0.046809703 599:-0.0011631283 600:0.0044173538 601:-0.013299907 602:-0.046117377 603:0.006828561 604:-0.01005222 605:-0.062716126 606:-0.089458138 607:0.0050963229 608:0.014974873 609:-0.055369593 610:-0.067033328 611:-0.049271211 612:-0.044282731 613:-0.035839073 614:-0.052825443 615:0.054444477 616:0.012647058 617:0.019261073 618:-0.048493814 619:-0.038223412 620:0.044864826 621:-0.027073553 622:0.028500319 623:0.026725454 624:-0.029508084 625:0.0056536463 626:-0.063515574 627:-0.0089885248 628:0.027867813 629:0.00020506619 630:-0.009398913 631:0.0059547424 632:0.019470498 633:-0.052454557 634:-0.0049418416 635:-0.069329686 636:0.035012893 637:0.041014608 638:0.0043936898 639:-0.016689073 640:0.0068372847 641:0.0040573571 642:0.054396506 643:0.065801919 644:-0.033451114 645:0.018159036 646:-0.039287932 647:-0.056509309 648:0.027835155 649:-0.015807722 650:-0.012772782 651:-0.015270689 652:-0.0053809099 653:-0.027754223 654:0.03956423 655:-0.030280806 656:0.0062085502 657:-0.048620712 658:-0.024984581 659:0.049163129 660:0.045464694 661:-0.021362772 662:0.015352705 663:0.12606548 664:0.02392398 665:0.039081298 666:0.027144466 667:0.085713647 668:-0.055744279 669:0.10654806 670:0.017787728 671:-0.032332044 672:-0.018310839 673:0.027891465 674:0.011356662 675:0.019730268 676:0.0029259967 677:-0.050556701 678:0.026009614 679:0.012787683 680:-0.042560972 681:0.017548582 682:-0.0079846922 683:0.074561998 684:-0.10850365 685:0.041229449 686:0.069453388 687:0.054400429 688:-0.022140546 689:-0.027776724 690:-0.03179526 691:0.0053061675 692:0.025685735 693:0.059997503 694:0.028372398 695:-0.019879192 696:-0.030546945 697:0.034885056 698:0.0083606364 699:0.040137522 700:0.044492405 701:-0.095771022 702:-0.0096877618 703:-0.029874245 704:-0.033310335 705:-0.097642004 706:0.01566202 707:0.03753569 708:-0.097604759 709:0.011990287 710:0.0055076238 711:-0.0029421141 712:0.013977157 713:-0.0135338 714:-0.047058422 715:-0.017442511 716:0.0091473283 717:-0.090702951 718:-0.033284348 719:0.050670858 720:-0.057475287 721:-0.03363068 722:0.029259689 723:0.032981798 724:0.0097343344 725:0.019338997 726:0.024149291 727:-0.014552614 728:-0.023272403 729:0.027764747 730:0.099019185 731:-0.0060642548 732:-0.042717304 733:0.018140543 734:-0.055807889 735:-0.049347706 736:0.015202506 737:0.015495647 738:-0.017660767 739:0.034353808 740:0.067291342 741:0.031414662 742:0.00059183955 743:0.14389099 744:-0.019920075 745:0.014819 746:-0.047583684 747:-0.0088668214 748:0.075520746 749:-0.04295852 750:-0.025742527 751:0.0073198532 752:-0.05055159 753:0.02376743 754:0.073049299 755:0.021674249 756:0.019505361 757:0.0079772631 758:0.0074317451 759:0.0036809477 760:-0.014017706 761:-0.0032706829 762:-0.004613217 763:-0.026614359 764:-0.030700631 765:-0.032649416 766:-0.012716931 767:-0.0015400795 768:-0.024510495 769:0.034752727 770:-0.024147693 771:-0.014837981 772:0.053810507 773:-0.013355134 774:0.0032943843 775:-0.0082750749 776:-0.02001592 777:0.048734371 778:-0.0062877992 779:0.051364761 780:-0.08149761 781:-0.036194336 782:-0.0072067389 783:0.012925801 784:-0.038292866 785:0.018001178 786:0.072796054 787:-0.066981904 788:-0.052615695 789:-0.0013041077 790:-0.0026921914 791:-0.08140707 792:0.045666832 793:0.037818789 794:-0.0014651479 795:-0.0099553773 796:-0.032992732 797:0.019395847 798:-0.059872843 799:-0.02025135 800:-0.041463219 801:-0.08803118 802:0.068501212 803:-0.040747009 804:-0.050009869 805:-0.049325529 806:-0.07955654 807:0.0124397 808:-0.034093179 809:-0.020203058 810:-0.029049067 811:-0.046054751 812:0.0088441111 813:-0.030900495 814:-0.0075359079 815:0.072007634 816:0.074893661 817:0.03490397 818:0.0043340167 819:0.040051814 820:0.043170374 821:0.050476536 822:0.01880998 823:0.050250769 824:0.0049856822 825:0.045612227 826:0.079870142 827:0.033013776 828:0.0069052973 829:-0.013697231 830:-0.10285003 831:0.035137713 832:0.0010240206 833:0.03221247 834:-0.018076578 835:-0.029102324 836:0.012730925 837:-0.022864273 838:-0.0067454269 839:0.088506483 840:0.058757532 841:0.053539425 842:0.094659425 843:0.070787497 844:0.040625297 845:0.091732778 846:-0.00048189302 847:-0.074870415 848:0.019820074 849:-0.11897574 850:0.16936868 851:0.0021749153 852:0.20059451 853:0.035358213 854:0.06902916 855:0.10360055 856:-0.052708555 857:0.033367932 858:-0.029384138 859:-0.010655771 860:0.082196198 861:0.081145458 862:0.046975013 863:-0.023299694 864:-0.034679446 865:-0.035548758 866:-0.034939397 867:0.057760455 868:-0.034227628 869:-0.037033252 870:-0.034904759 871:-0.034155227 873:-0.033404764 874:-0.035169456 875:-0.034563236 876:-0.035102442 877:-0.035946783 878:-0.035479683 879:-0.035298638 880:-0.035150714 881:-0.035075773 882:0.018691963 883:0.0064164377 884:0.025290133 885:0.03608156 886:-0.053979728 887:-0.082315229 888:-0.044297453 889:-0.08777228 890:0.11934557 891:-0.10186485 892:0.041617271 893:0.028298918 894:-0.030444928 895:0.076394923 896:-0.029606083 897:0.02773145 898:-0.025320167 904:-0.082643144 914:-0.040899474 918:-0.069655202 927:-0.079165258 934:0.0053429445 939:-0.077768527 942:-0.05302893 947:-0.046659909 949:-0.025939079 950:-0.077599391 955:-0.011225752 966:-0.06714572 985:-0.050044969 993:-0.030768815 995:-0.03213555 997:-0.039399423 1003:-0.0011533222 1008:-0.03867735 1013:-0.018179109 1019:-0.044988956 1027:-0.030446477 1034:-0.078204021 1038:-0.045608461 1042:-0.029940013 1047:-0.072320484 1048:-0.0054176776 1050:-0.0025966018 1053:-0.020394644 1059:-0.017241484 1060:-0.088170737 1075:-0.058095269 1080:-0.052509822 1083:-0.066314548 1085:-0.064694867 1101:0.01706695 1111:0.075503647 1115:-0.07372728 1124:-0.26997709 1131:0.060835071 1136:0.010086697 1139:0.010142362 1144:0.0084246667 1146:-0.0068810633 1147:-0.0030536379 1152:0.031962588 1163:0.008272903 1182:0.029331155 1190:0.013980381 1192:-0.012664007 1194:0.0094484668 1200:-0.00090373377 1205:0.034774181 1210:0.025999336 1216:0.053697508 1224:-0.0089482162 1231:-0.078204021 1235:0.09804289 1239:0.0029854071 1244:0.016035318 1245:-0.0019470259 1247:-0.0064716404 1250:0.011204326 1256:0.048436437 1257:-0.15068221 1272:0.014288357 1277:-0.11653066 1280:-0.14925651 1282:0.028602445 1293:-0.053979728 1294:-0.048112258 #
