SVM-light Version V6.20
0 # kernel type
3 # kernel parameter -d 
1 # kernel parameter -g 
1 # kernel parameter -s 
1 # kernel parameter -r 
empty# kernel parameter -u 
503 # highest feature index 
37 # number of training documents 
2 # number of support vectors plus 1 
0 # threshold b, each following line is a SV (starting with alpha*y)
1 1:-0.051000051 2:-0.02531998 3:-0.042175639 4:-0.02531998 9:0.023441533 10:0.038145978 11:0.03059602 12:0.038145978 13:0.11172885 14:0.070398591 15:0.047700655 16:0.070398591 21:-1.7943194e-05 22:-0.027418353 23:-0.02718482 24:-0.014505947 25:0.0050969017 26:0.025192175 27:-0.00050145778 28:0.025192175 33:-0.0083677256 34:-0.025185214 35:-0.015468233 36:-0.013354305 41:-0.057888292 42:0.060053904 43:0.00067081791 44:0.060053904 45:-0.11091729 46:-0.033071119 47:-0.095017366 48:-0.033071119 49:0.01041091 50:-0.016181467 51:0.002190063 52:-0.0021883822 53:0.034871299 54:0.021930773 55:0.025970789 56:0.021930773 61:-0.045487121 62:0.02466844 63:0.065636925 64:0.02466844 65:-0.15492706 66:-0.10527258 67:-0.11360628 68:-0.10527258 69:0.093910985 70:0.072585933 71:0.092127606 72:0.075252131 73:0.035821036 74:0.036471307 75:0.044971444 76:0.036471307 81:-0.021444408 82:0.072533362 83:0.092131108 84:0.072533362 85:-0.076700829 86:-0.034446366 87:-0.034182888 88:-0.034446366 89:0.02033199 90:-0.0031979859 91:0.016896961 92:0.0058031669 93:0.010492752 94:-0.0027861381 95:0.0079355687 96:-0.0027861381 97:0.22153699 98:-0.15929437 99:-0.14277653 100:-0.14185716 101:0.25499263 102:-0.11291081 103:-0.23038208 104:-0.11291081 105:0.23108768 106:-0.11405847 107:-0.13475396 108:-0.097733699 109:-0.11369254 110:-0.098786138 111:0.13409714 112:-0.090415396 113:-0.21867588 114:-0.21867588 115:-0.070382372 116:-0.21867588 117:0.11539446 118:-0.00039882326 119:0.077556945 120:0.031431906 121:0.088667765 122:-0.12396284 123:-0.078307047 124:-0.12149868 125:0.14565469 126:-0.22224876 127:-0.24445854 128:-0.22224876 129:0.12413079 130:-0.20564911 131:-0.17168608 132:-0.20767595 133:0.11872667 134:0.025174422 135:-0.085009485 136:0.025174422 137:0.10332833 138:0.048434392 139:0.0026854363 140:0.024805691 141:-0.027315911 142:-0.064039253 143:-0.0943496 144:-0.063857689 145:0.32703567 146:0.22480482 147:0.28866935 148:0.19399448 149:0.29415676 150:0.1200841 151:0.21794821 152:0.11719628 153:0.044710506 154:-0.014270633 155:-0.076735847 156:-0.014270633 157:0.14294142 158:-0.080129005 159:-0.11423795 160:-0.041753005 161:0.22152109 162:-0.093104586 163:-0.10362212 164:-0.091762513 165:0.16620675 166:-0.096993022 167:0.09165781 168:-0.050159615 169:0.16135143 170:-0.16548997 171:0.001419772 172:-0.14970842 173:0.12052037 174:0.008794846 175:-0.091205291 176:0.008794846 177:0.19180153 178:0.11194873 179:-0.048058212 180:0.09324155 181:0.12980944 182:-0.098951668 183:-0.054741573 184:-0.098435812 185:0.19050889 186:0.070946917 187:0.18769403 188:0.10222924 189:0.07763017 190:-0.13277021 191:0.068067417 192:-0.11280348 193:0.04470918 194:0.04470918 195:0.04470918 196:0.04470918 197:0.033884849 198:0.033884849 199:0.033884849 200:0.033884849 201:0.11838019 202:0.11838019 203:0.11838019 204:0.11838019 205:0.14100648 206:0.14100648 207:0.14100648 208:0.14100648 213:0.030736199 214:0.030736199 215:0.030736199 216:0.030736199 217:0.044000987 218:0.044000987 219:0.044000987 220:0.044000987 221:0.099742539 222:0.099742539 223:0.099742539 224:0.099742539 225:0.13475756 226:0.13475756 227:0.13475756 228:0.13475756 233:0.040719435 234:0.040719435 235:0.040719435 236:0.040719435 237:0.046423417 238:0.046423417 239:0.046423417 240:0.046423417 241:0.1037181 242:0.1037181 243:0.1037181 244:0.1037181 245:0.12142195 246:0.12142195 247:0.12142195 248:0.12142195 253:0.058097828 254:0.058097828 255:0.058097828 256:0.058097828 257:0.021430483 258:0.021430483 259:0.021430483 260:0.021430483 261:0.03031604 262:0.03031604 263:0.03031604 264:0.03031604 265:0.023921808 266:0.023921808 267:0.023921808 268:0.023921808 273:0.063811541 274:0.063811541 275:0.063811541 276:0.063811541 277:0.021884447 278:0.021884447 279:0.021884447 280:0.021884447 281:0.032425016 282:0.032425016 283:0.032425016 284:0.032425016 285:0.026200561 286:0.026200561 287:0.026200561 288:0.026200561 301:0.032675818 302:0.032675818 303:0.032675818 304:0.032675818 305:0.023603164 306:0.023603164 307:0.023603164 308:0.023603164 373:0.11120044 374:-0.091944642 375:-0.022791313 376:0.042502046 377:0.058107071 378:-0.044999696 379:-0.14072831 380:0.13823369 381:-0.070521124 382:0.30760068 383:0.014144132 384:0.33536729 385:0.007958563 386:-0.013962935 387:-0.19914582 388:-0.018615939 389:0.031090692 390:-0.18998481 391:0.025372786 392:0.14942886 393:0.31735945 394:-0.060299117 395:-0.034446683 396:-0.055111378 397:0.136053 398:0.072558187 399:-0.21443652 400:0.15842156 401:0.16419491 402:0.05528402 403:-0.03243063 404:-0.092041381 405:0.13937588 406:0.060406208 407:-0.21181621 408:-0.14328504 409:0.21569659 410:0.023191735 411:-0.14909665 412:-0.18499774 413:0.017609116 414:0.066824228 415:0.093683012 416:-0.2225118 417:0.090181112 418:-0.093758069 419:-0.035723235 420:-0.093165763 421:0.094394386 422:0.033522379 423:-0.060816556 424:-0.0078165513 425:0.26657143 426:0.30944905 427:-0.052606456 428:0.14374703 429:-0.18013522 430:-0.045859132 431:0.17135398 432:0.11573286 433:-0.12977019 434:0.035635278 435:-0.0259852 436:-0.022544462 437:-0.069750689 438:0.099907972 439:0.10084197 440:-0.028429504 441:-0.052851945 442:0.029035032 443:0.01553475 444:-0.036662076 445:-0.056902487 446:-0.12050042 447:-0.031689409 448:-0.10898013 449:-0.034457564 450:-0.053651933 451:0.085792065 452:0.15685529 453:-0.022891864 454:-0.043478418 455:-0.16824335 456:0.12278216 457:0.17196786 458:-0.01178159 459:0.26279804 460:-0.082489267 461:0.054686762 462:0.027371801 463:0.32877648 464:0.22151031 465:0.12333827 466:-0.10490043 467:-0.028745549 468:0.12925887 469:0.021550357 470:-0.15421954 471:-0.0039552748 472:0.04324656 473:-0.049414419 474:0.010575878 475:0.13419968 476:0.1061416 477:0.1155363 478:0.20363042 479:-0.048644733 480:-0.24627008 481:0.075932391 482:0.052742884 483:0.15179026 484:0.2528663 485:-0.11830842 486:-0.11030696 487:0.00049066794 488:0.041936837 489:0.077822864 490:0.0083514974 491:0.021713052 492:0.34338772 493:-0.10599229 494:0.28122687 495:0.052038986 496:0.37776363 497:-0.24999382 498:0.072938755 499:-0.24302088 500:0.060454171 501:-0.27610371 #
