SVM-light Version V6.20
0 # kernel type
3 # kernel parameter -d 
1 # kernel parameter -g 
1 # kernel parameter -s 
1 # kernel parameter -r 
empty# kernel parameter -u 
483 # highest feature index 
28 # number of training documents 
2 # number of support vectors plus 1 
0 # threshold b, each following line is a SV (starting with alpha*y)
1 1:-0.04986307 2:-0.026040887 3:-0.040554125 4:-0.026040887 9:0.034004249 10:0.044968776 11:0.040170807 12:0.044968776 13:0.10290427 14:0.064838365 15:0.043661579 16:0.064838365 21:-0.0027566724 22:-0.031561323 23:-0.029768767 24:-0.0195831 25:0.0059013586 26:0.024542792 27:0.0011570746 28:0.024542792 33:-0.0042682551 34:-0.022534929 35:-0.011603098 36:-0.011559949 41:-0.065782584 42:0.048165787 43:-0.012519842 44:0.048165787 45:-0.11801215 46:-0.045234054 47:-0.10460883 48:-0.045234054 49:0.010353476 50:-0.018143453 51:0.0012804648 52:-0.0051627303 53:0.03367028 54:0.020029906 55:0.025285415 56:0.020029906 61:-0.041326437 62:0.022407074 63:0.07027851 64:0.022407074 65:-0.1524774 66:-0.10641529 67:-0.10909085 68:-0.10641529 69:0.10342436 70:0.079375677 71:0.10063081 72:0.081848986 73:0.043078676 74:0.042044602 75:0.052350421 76:0.042044602 81:-0.018708041 82:0.066998951 83:0.094093643 84:0.066998951 85:-0.075264677 86:-0.036067218 87:-0.031103054 88:-0.036067218 89:0.02484085 90:-0.00099037064 91:0.020551033 92:0.0073595685 93:0.01341504 94:-0.00058199716 95:0.011222613 96:-0.00058199716 97:0.24265431 98:-0.17479946 99:-0.13492885 100:-0.1497214 101:0.2418053 102:-0.12825285 103:-0.22955196 104:-0.12825285 105:0.32116282 106:-0.13449235 107:-0.12782785 108:-0.11891309 109:-0.16697641 110:-0.17178261 111:0.17467365 112:-0.1742399 113:-0.22816402 114:-0.22816402 115:-0.050344925 116:-0.22816402 117:0.20625007 118:0.044056922 119:0.14370286 120:0.07251291 121:0.096280843 122:-0.14924724 123:-0.056133661 124:-0.14058888 125:0.12772328 126:-0.24233486 127:-0.23962092 128:-0.24233486 129:0.21279104 130:-0.24663043 131:-0.17359643 132:-0.25697076 133:0.11883945 134:0.02470907 135:-0.10532556 136:0.02470907 137:0.088375673 138:0.0098430254 139:-0.010679182 140:0.0056449268 141:-0.053384341 142:-0.10753608 143:-0.110372 144:-0.10349862 145:0.39088535 146:0.27000076 147:0.37070438 148:0.23442854 149:0.37450519 150:0.15671876 151:0.2952227 152:0.15332416 153:0.04200295 154:-0.018579984 155:-0.076592341 156:-0.018579984 157:0.15482369 158:-0.081920266 159:-0.13300183 160:-0.049014337 161:0.23026663 162:-0.10156418 163:-0.10204708 164:-0.099816851 165:0.19859731 166:-0.13730302 167:0.11347616 168:-0.070231274 169:0.18151663 170:-0.20796514 171:0.01388281 172:-0.19044401 173:0.11895723 174:0.0058543924 175:-0.098584309 176:0.0058543924 177:0.20184897 178:0.10684323 179:-0.064407371 180:0.098254375 181:0.13188073 182:-0.12149676 183:-0.052019712 184:-0.12353435 185:0.21068785 186:0.040730696 187:0.21144421 188:0.09240225 189:0.08944311 190:-0.20000595 191:0.078385383 192:-0.16736865 193:0.045338221 194:0.045338221 195:0.045338221 196:0.045338221 197:0.034895193 198:0.034895193 199:0.034895193 200:0.034895193 201:0.12233087 202:0.12233087 203:0.12233087 204:0.12233087 205:0.14115702 206:0.14115702 207:0.14115702 208:0.14115702 213:0.029081356 214:0.029081356 215:0.029081356 216:0.029081356 217:0.041631967 218:0.041631967 219:0.041631967 220:0.041631967 221:0.091186911 222:0.091186911 223:0.091186911 224:0.091186911 225:0.12451444 226:0.12451444 227:0.12451444 228:0.12451444 233:0.049999997 234:0.049999997 235:0.049999997 236:0.049999997 237:0.047701981 238:0.047701981 239:0.047701981 240:0.047701981 241:0.13892423 242:0.13892423 243:0.13892423 244:0.13892423 245:0.14835297 246:0.14835297 247:0.14835297 248:0.14835297 253:0.06123985 254:0.06123985 255:0.06123985 256:0.06123985 257:0.022589477 258:0.022589477 259:0.022589477 260:0.022589477 261:0.013303507 262:0.013303507 263:0.013303507 264:0.013303507 265:0.0071129329 266:0.0071129329 267:0.0071129329 268:0.0071129329 273:0.067262568 274:0.067262568 275:0.067262568 276:0.067262568 277:0.023067992 278:0.023067992 279:0.023067992 280:0.023067992 281:0.021151764 282:0.021151764 283:0.021151764 284:0.021151764 285:0.015046162 286:0.015046162 287:0.015046162 288:0.015046162 301:-0.010032824 302:-0.010032824 303:-0.010032824 304:-0.010032824 305:-0.016191358 306:-0.016191358 307:-0.016191358 308:-0.016191358 373:0.14874245 374:-0.11938627 375:0.029006625 376:0.055984773 377:0.091518149 378:-0.043000966 379:-0.17957582 380:0.14157119 381:-0.10341655 382:0.35266921 383:0.030603154 384:0.39180729 385:0.035019338 386:0.0058790161 387:-0.17526861 388:-0.096866325 389:0.14189833 390:-0.1701481 391:0.046332687 392:0.22832869 393:0.35801065 394:-0.11322017 395:-0.087775253 396:-0.04024858 397:0.17667583 398:0.044579413 399:-0.24260551 400:0.15699282 401:0.21724844 402:0.077080645 403:-0.045678198 404:-0.13095458 405:0.19549522 406:0.082377769 407:-0.25617224 408:-0.13780352 409:0.22702208 410:0.038921323 411:-0.10178823 412:-0.19607656 413:0.00064707163 414:0.078632064 415:0.11949886 416:-0.27309924 417:0.063950151 418:-0.078708805 419:-0.072307222 420:-0.15842356 421:0.049955305 422:0.045570582 423:-0.057893388 424:0.011346081 425:0.29418308 426:0.36859322 427:-0.091698393 428:0.17446752 429:-0.10648376 430:-0.067105934 431:0.19349129 432:0.11221609 433:-0.18761232 434:0.025050744 435:-0.021852842 436:-0.065259121 437:-0.12474629 438:0.11837546 439:0.15219684 440:-0.0040587974 441:-0.057305519 442:0.038584322 443:0.018087396 444:-0.033464763 445:-0.05516566 446:-0.1125458 447:-0.085305318 448:-0.15703127 449:-0.041967995 450:-0.13214037 451:0.039668728 452:0.21857341 453:-0.034714486 454:-0.073607922 455:-0.21684384 456:0.17833723 457:0.23591915 458:0.00440084 459:0.33067474 460:-0.14265478 461:0.062041651 462:0.0056051291 463:0.39385876 464:0.20212957 465:0.15198711 466:-0.11250279 467:-0.051533397 468:0.15083647 469:0.045263067 470:-0.20346366 471:-0.020745331 472:0.02891081 473:-0.069429882 474:0.0025984403 475:0.13698108 476:0.10413383 477:0.1168431 478:0.26997784 479:0.088260897 480:-0.29562789 481:0.072393276 482:0.07946489 #
