SVM-light Version V6.20
0 # kernel type
3 # kernel parameter -d 
1 # kernel parameter -g 
1 # kernel parameter -s 
1 # kernel parameter -r 
empty# kernel parameter -u 
839 # highest feature index 
31 # number of training documents 
2 # number of support vectors plus 1 
0 # threshold b, each following line is a SV (starting with alpha*y)
1 1:-0.026224751 2:-0.019286713 3:-0.026171351 4:-0.019286713 9:-0.00036547342 10:-0.0077656605 11:-0.0059199501 12:-0.0077656605 13:0.083210759 14:0.052429788 15:0.054952037 16:0.052429788 21:0.010283916 22:-0.0071689286 23:-0.0020762624 24:-0.0036803475 25:0.0042957617 26:0.0097249439 27:0.001851239 28:0.0097249439 33:-0.006929833 34:-0.022802982 35:-0.015726943 36:-0.019606607 41:-0.0138922 42:0.017315974 43:0.0020821302 44:0.017315974 45:-0.044453707 46:-0.022881526 47:-0.041447949 48:-0.022881526 49:0.029169668 50:0.0057149273 51:0.017843615 52:0.0094954679 53:0.03856682 54:0.028117683 55:0.03125409 56:0.028117683 61:0.033963539 62:0.047195349 63:0.049760289 64:0.047195349 65:-0.057940047 66:-0.044524785 67:-0.064313024 68:-0.044524785 69:0.056631241 70:0.032738145 71:0.045020483 72:0.033458468 73:0.01871697 74:0.011934439 75:0.016454002 76:0.011934439 81:0.039060604 82:0.058196217 83:0.061282925 84:0.058196217 85:-0.016339384 86:-0.0049234033 87:-0.013430223 88:-0.0049234033 89:0.025468741 90:0.0020970162 91:0.014168579 92:0.0045288773 93:0.014124552 94:0.003402194 95:0.0081842151 96:0.003402194 97:0.16222847 98:-0.084534898 99:-0.075090416 100:-0.073074959 101:0.20235153 102:-0.026811894 103:-0.099243037 104:-0.026811894 105:0.13094434 106:-0.060122754 107:-0.090338573 108:-0.03532289 109:-0.11577232 110:-0.095340215 111:0.076163456 112:-0.088824183 113:-0.19768758 114:-0.19768758 115:-0.070702054 116:-0.19768758 117:0.071582735 118:0.03067703 119:0.061102182 120:0.045350906 121:0.066667274 122:-0.050430994 123:-0.0389461 124:-0.050133798 125:0.10228815 126:-0.12687527 127:-0.11350539 128:-0.12687527 129:0.072814055 130:-0.078039594 131:-0.10521875 132:-0.082466207 133:0.066714801 134:0.008326347 135:-0.044110496 136:0.008326347 137:0.023661342 138:0.015139964 139:0.0069147632 140:0.0079761883 141:-0.060257565 142:-0.055734474 143:-0.040997829 144:-0.054637145 145:0.18910353 146:0.1599438 147:0.17283516 148:0.14577478 149:0.14252128 150:0.07300698 151:0.12187083 152:0.069013759 153:0.030335311 154:-0.01121227 155:-0.042725541 156:-0.01121227 157:0.10249136 158:-0.071670078 159:-0.069145128 160:-0.02955691 161:0.14303792 162:-0.078146763 163:-0.062888376 164:-0.07532727 165:0.10597435 166:-0.034765072 167:0.042283442 168:-0.00090759812 169:0.094869137 170:-0.12007977 171:-0.033942632 172:-0.11496745 173:0.070395999 174:-0.0019639565 175:-0.049681552 176:-0.0019639565 177:0.10378305 178:0.054140896 179:-0.032164875 180:0.049245279 181:0.096298054 182:-0.058979921 183:-0.023436682 184:-0.057090256 185:0.11840069 186:0.088220246 187:0.11074462 188:0.10890681 189:0.036142383 190:-0.080058813 191:0.0085887471 192:-0.080295213 193:0.023881253 194:0.023881253 195:0.023881253 196:0.023881253 197:0.021488331 198:0.021488331 199:0.021488331 200:0.021488331 201:0.067443021 202:0.067443021 203:0.067443021 204:0.067443021 205:0.078346342 206:0.078346342 207:0.078346342 208:0.078346342 213:0.017808452 214:0.017808452 215:0.017808452 216:0.017808452 217:0.028700532 218:0.028700532 219:0.028700532 220:0.028700532 221:0.059722099 222:0.059722099 223:0.059722099 224:0.059722099 225:0.07592795 226:0.07592795 227:0.07592795 228:0.07592795 233:0.021008112 234:0.021008112 235:0.021008112 236:0.021008112 237:0.024227342 238:0.024227342 239:0.024227342 240:0.024227342 241:0.054420546 242:0.054420546 243:0.054420546 244:0.054420546 245:0.062900819 246:0.062900819 247:0.062900819 248:0.062900819 253:0.046912484 254:0.046912484 255:0.046912484 256:0.046912484 257:0.017304556 258:0.017304556 259:0.017304556 260:0.017304556 261:0.02446696 262:0.02446696 263:0.02446696 264:0.02446696 265:0.019304151 266:0.019304151 267:0.019304151 268:0.019304151 273:0.051526159 274:0.051526159 275:0.051526159 276:0.051526159 277:0.017671121 278:0.017671121 279:0.017671121 280:0.017671121 281:0.026173659 282:0.026173659 283:0.026173659 284:0.026173659 285:0.021147877 286:0.021147877 287:0.021147877 288:0.021147877 301:0.026355177 302:0.026355177 303:0.026355177 304:0.026355177 305:0.019031519 306:0.019031519 307:0.019031519 308:0.019031519 373:0.04805769 374:-0.095372438 375:-0.0081782872 376:0.05426883 377:0.061310086 378:-0.011790493 379:-0.036759116 380:0.10168941 381:-0.026841378 382:0.13879965 383:0.020188292 384:0.17363727 385:0.0089804512 386:0.030930754 387:-0.1036125 388:-0.031712048 389:0.030046584 390:-0.10262977 391:0.03441 392:0.06708508 393:0.13070834 394:-0.027157919 395:-0.016661029 396:-0.033734642 397:0.039874922 398:0.019631565 399:-0.17268421 400:0.033377707 401:0.080924325 402:0.035765033 403:-0.0023679852 404:-0.062225547 405:0.092303805 406:0.0010640047 407:-0.11351754 408:-0.073007107 409:0.11746442 410:0.011825101 411:-0.10613833 412:-0.085083902 413:-5.1559055e-05 414:0.044217974 415:0.069354065 416:-0.1712269 417:0.040090613 418:-0.052489057 419:-0.018419167 420:-0.051195569 421:0.054519959 422:0.045781791 423:-0.028788511 424:0.027554367 425:0.11776517 426:0.1599853 427:0.020463951 428:0.042814203 429:-0.10043694 430:-0.034303159 431:0.050579004 432:0.090377241 433:-0.078175768 434:0.036147453 435:0.025798572 436:-0.0036282274 437:-0.082943246 438:0.051144794 439:0.050102398 440:-0.029655609 441:-0.026248921 442:-0.0091396468 443:0.01614897 444:-0.069427781 445:-0.051319491 446:-0.075437404 447:0.0019798218 448:-0.051197492 449:-0.052884825 450:-0.041916296 451:0.039797932 452:0.067180395 453:-0.0029690252 454:-0.021787176 455:-0.099570952 456:0.051784672 457:0.073015958 458:0.032349013 459:0.099448651 460:-0.032503255 461:0.036760289 462:-0.016754255 463:0.14000285 464:0.12566881 465:0.00054929347 466:-0.048180278 467:-0.011541682 468:0.033429082 469:0.034707356 470:-0.059518646 471:-0.030345285 472:0.035019677 473:-0.018090667 474:0.015150898 475:0.091979057 476:0.069416486 477:0.071223207 478:0.11055841 479:0.0013752906 480:-0.10147825 481:-0.023081524 482:0.0050825928 483:0.1313895 484:0.19128503 485:-0.053971719 486:-0.054957524 487:0.0325002 488:0.016945599 489:0.051670451 490:0.0044875457 491:-9.2674403e-05 492:0.18099184 493:-0.011716663 494:0.13624431 495:0.0036188138 496:0.18715681 497:-0.073691197 498:-0.010090471 499:-0.15315773 500:-0.0078761298 501:-0.14145644 503:-0.034071632 504:0.054486331 505:0.044299435 506:-0.17381446 507:-0.023906173 508:-0.070972115 509:0.025417397 510:-0.051709149 511:0.18925436 512:-0.042575967 513:0.041410692 514:-0.047338061 515:-0.048550654 516:-0.054265019 517:-0.021051511 518:0.03600974 519:0.032758892 520:0.039966486 521:0.015133691 522:-0.098832004 523:0.094163857 524:0.078643098 525:-0.022561861 526:-0.091872357 527:0.077346444 528:0.0067766379 529:-0.096113563 530:-0.058606956 531:0.014260171 532:0.081925221 533:-0.13844055 534:0.031635046 535:0.0087823719 536:-0.014489173 537:-0.037746362 538:0.13781218 539:0.0027822624 540:0.15493517 541:-0.13937508 542:0.25141722 543:0.019006591 544:-0.014405549 545:0.079177678 546:-0.0028209088 547:0.04896174 548:0.094830744 549:0.089846298 550:-0.018519467 551:-0.083194755 552:-0.073620617 553:-0.073121019 554:0.04237888 555:-0.049947526 556:0.025123002 557:0.0072944253 558:-0.030205088 559:0.0074799117 560:-0.048309397 561:-0.036960021 562:-0.031016422 563:-0.010008685 564:-0.090076096 565:-0.055068258 566:0.021420585 567:-0.028688282 568:-0.076198548 569:-0.045389563 570:-0.020221999 571:0.044054415 572:-0.070459068 573:0.037447073 574:0.058668897 575:-0.0025543349 576:-0.010882225 577:-0.067012981 578:0.13248129 579:0.094279326 580:0.039753146 581:0.031504553 582:0.04122863 583:0.010113562 584:0.015453958 585:0.05522678 586:0.040728774 587:-0.026500411 588:-0.0092516411 589:0.027213778 590:0.020712584 591:-0.07851509 592:0.0013950139 593:-0.018745072 594:0.065703087 595:-0.062147204 596:0.00073661911 597:0.02552972 598:0.078757189 599:0.024723947 600:0.044781551 601:-0.067453779 602:-0.076503173 603:0.03575588 604:-0.10560946 605:-0.098389968 606:-0.13056003 607:0.035728075 608:-0.0010138366 609:-0.040402614 610:-0.088049211 611:-0.072243996 612:-0.082982391 613:-0.067250676 614:-0.081062354 615:0.051309913 616:0.046437163 617:0.018867103 618:-0.094059676 619:-0.028765917 620:0.085758746 621:-0.054491144 622:0.037929531 623:0.0069499379 624:-0.037594736 625:-0.0057719499 626:-0.12561753 627:-0.029147966 628:0.026199114 629:0.0053791623 630:-0.020449346 631:0.022332294 632:-0.009868836 633:-0.072628185 634:-0.0081260959 635:-0.075048305 636:0.038497828 637:0.047922704 638:0.0054886122 639:-0.0010382175 640:0.016303208 641:0.012328929 642:0.10586487 643:0.07982675 644:-0.08003851 645:0.028933275 646:-0.082774587 647:-0.051981684 648:0.065572038 649:-0.030523514 650:-0.045576114 651:-0.069805704 652:-0.0020181863 653:-0.043828186 654:0.10253919 655:-0.12561205 656:-0.043082267 657:-0.04330669 658:-0.013686282 659:0.13555853 660:-0.016935099 661:-0.022371501 662:0.068231106 663:0.21986818 664:0.0024225682 665:0.066357128 666:0.05332974 667:0.13278745 668:-0.056839865 669:0.12192957 670:0.015014428 671:-0.025514508 672:-0.025155574 673:0.040221911 674:0.027788807 675:-0.016021043 676:-0.04855907 677:-0.020866638 678:0.063967817 679:-0.029348139 680:-0.056969635 681:0.014904085 682:-0.010422214 683:0.054721959 684:-0.15733379 685:0.088723779 686:0.15444551 687:0.069556169 688:-0.022755926 689:-0.054780498 690:-0.027545577 691:-0.012651463 692:0.043673776 693:0.068464369 694:0.022718325 695:-0.005258712 696:-0.01918409 697:-0.033302736 698:0.062969968 699:0.011423089 700:0.031886831 701:-0.16058661 702:0.028434098 703:-0.030415254 704:-0.070201226 705:-0.1343258 706:0.026992721 707:0.07276959 708:-0.15471293 709:0.043180127 710:0.050162412 711:-0.0088106571 712:0.01824314 713:-0.016663149 714:-0.068270318 715:-0.031933419 716:-0.013247305 717:-0.10836702 718:-0.010059083 719:0.066798553 720:-0.059741225 721:-0.061970551 722:0.013277894 723:0.06952516 724:0.0302717 725:0.011384577 726:-0.0050639319 727:0.057100341 728:-0.037507731 729:0.096505158 730:0.10865103 731:-0.0090747867 732:-0.091001183 733:0.033161126 734:-0.03225733 735:-0.073627137 736:0.010225857 737:0.010864978 738:0.0047716987 739:0.046967156 740:0.053852003 741:0.020874027 742:0.022276158 743:0.21702704 744:0.010748418 745:-0.034053326 746:-0.10977555 747:-0.0065214587 748:0.12501112 749:-0.063831538 750:-0.02234699 751:0.01122654 752:-0.068987772 753:0.010331959 754:0.088248253 755:0.025179068 756:0.013536219 757:0.0066570039 758:0.025913544 759:0.084071383 760:0.040771704 761:0.034348838 762:-0.066222221 763:-0.030239381 764:-0.069782779 765:-0.085442856 766:0.0069104247 767:0.02091979 768:-0.0045528561 769:0.073460482 770:0.0099581713 771:0.011899369 772:0.016339675 773:0.020167707 774:0.0066347136 775:0.051388599 776:0.0087214038 777:0.056619283 778:-0.033632576 779:0.063786604 780:-0.13006219 781:-0.038205083 782:-0.010497537 783:0.068234563 784:-0.082991473 785:0.0084122093 786:0.10781734 787:-0.096387155 788:-0.075763203 789:0.040039226 790:-0.031450048 791:-0.1077989 792:0.056241803 793:0.071526676 794:-0.035831869 795:-0.050738402 796:-0.046011597 797:0.033369716 798:-0.081415705 799:0.001150984 800:-0.07794448 801:-0.092016183 802:0.11970741 803:0.0017880003 804:-0.028357323 805:-0.069257334 806:-0.1007669 807:0.034342621 808:-0.063245371 809:-0.037457347 810:-0.061878771 811:-0.057044119 812:0.040362436 813:-0.030117333 814:0.017504245 815:0.13601823 816:0.13586152 817:0.066793829 818:0.014444728 819:0.08407598 820:0.083680131 821:0.054557264 822:0.038455375 823:0.0865549 824:-0.10672876 825:0.00065729779 826:0.047871243 827:0.1257675 828:0.065510765 829:-0.010090339 830:-0.15673749 831:0.080144443 832:0.0041879225 833:0.026296115 834:-0.039446466 835:-0.025267407 836:0.023920789 837:-0.048746772 838:0.0066786697 #
