SVM-light Version V6.20
0 # kernel type
3 # kernel parameter -d 
1 # kernel parameter -g 
1 # kernel parameter -s 
1 # kernel parameter -r 
empty# kernel parameter -u 
864 # highest feature index 
34 # number of training documents 
2 # number of support vectors plus 1 
0 # threshold b, each following line is a SV (starting with alpha*y)
1 1:-0.01953784 2:-0.0084671089 3:-0.017369989 4:-0.0084671089 9:0.0033369414 10:0.00041919656 11:0.00052838842 12:0.00041919656 13:0.064761192 14:0.040805008 15:0.033728428 16:0.040805008 21:0.019644417 22:-0.00095329719 23:0.0037482246 24:0.0046132701 25:0.0054811421 26:0.014144254 27:0.0024133271 28:0.014144254 33:0.0030898107 34:-0.013381789 35:-0.005434331 36:-0.0082814628 41:-0.010451271 42:0.034944929 43:0.016065897 44:0.034944929 45:-0.029983805 46:0.0029107393 47:-0.021541428 48:0.0029107393 49:0.03072851 50:0.0060215155 51:0.019882044 52:0.012053962 53:0.036768552 54:0.025530571 55:0.029096786 56:0.025530571 61:0.00071661943 62:0.026303247 63:0.03611796 64:0.026303247 65:-0.054189637 66:-0.032783486 67:-0.041573424 68:-0.032783486 69:0.043602068 70:0.019650733 71:0.034005731 72:0.020800132 73:0.014204154 74:0.0088209221 75:0.013756465 76:0.0088209221 81:0.011219288 82:0.046642464 83:0.050786089 84:0.046642464 85:-0.021251081 86:-0.003035096 87:-0.006267387 88:-0.003035096 89:0.024282681 90:0.00029003932 91:0.014568147 92:0.0041704546 93:0.014708281 94:0.0031764554 95:0.0095804259 96:0.0031764554 97:0.11565597 98:-0.085578896 99:-0.07335791 100:-0.07448718 101:0.15460207 102:-0.015598577 103:-0.084290534 104:-0.015598577 105:0.079789743 106:-0.062378768 107:-0.077273846 108:-0.042744122 109:-0.097484492 110:-0.084151007 111:0.046372693 112:-0.080117129 113:-0.1691587 114:-0.1691587 115:-0.05891135 116:-0.1691587 117:0.069865473 118:0.032557614 119:0.062084347 120:0.047503542 121:0.049107421 122:-0.045738086 123:-0.042198643 124:-0.04458449 125:0.069320358 126:-0.10088028 127:-0.096143037 128:-0.10088028 129:0.048366036 130:-0.068244934 131:-0.080132522 132:-0.06638696 133:0.040390711 134:-0.0031430505 135:-0.045858238 136:-0.0031430505 137:-0.0011138699 138:-0.0090111634 139:-0.0029779139 140:-0.010222833 141:-0.054141529 142:-0.052637741 143:-0.033964761 144:-0.051703315 145:0.15664881 146:0.13489495 147:0.15236591 148:0.1287268 149:0.12084112 150:0.065134473 151:0.11407389 152:0.064581707 153:0.028879603 154:-0.0089786649 155:-0.03611343 156:-0.0089786649 157:0.083042607 158:-0.053479437 159:-0.050336853 160:-0.014383845 161:0.1132999 162:-0.060314327 163:-0.05144899 164:-0.058453448 165:0.079318754 166:-0.024419729 167:0.031397346 168:0.0048657134 169:0.067279123 170:-0.1000242 171:-0.02648044 172:-0.093217149 173:0.048019283 174:-0.009751332 175:-0.045001782 176:-0.009751332 177:0.073418841 178:0.03492488 179:-0.024949778 180:0.03075055 181:0.090565264 182:-0.035635665 183:-0.017004091 184:-0.034648988 185:0.090062335 186:0.070086189 187:0.090257153 188:0.087583072 189:0.028635129 190:-0.065749519 191:0.016044073 192:-0.063286006 193:0.025450969 194:0.025450969 195:0.025450969 196:0.025450969 197:0.021276077 198:0.021276077 199:0.021276077 200:0.021276077 201:0.070667155 202:0.070667155 203:0.070667155 204:0.070667155 205:0.082542762 206:0.082542762 207:0.082542762 208:0.082542762 213:0.018159609 214:0.018159609 215:0.018159609 216:0.018159609 217:0.027843336 218:0.027843336 219:0.027843336 220:0.027843336 221:0.06049132 222:0.06049132 223:0.06049132 224:0.06049132 225:0.078800455 226:0.078800455 227:0.078800455 228:0.078800455 233:0.02332864 234:0.02332864 235:0.02332864 236:0.02332864 237:0.026140183 238:0.026140183 239:0.026140183 240:0.026140183 241:0.061037987 242:0.061037987 243:0.061037987 244:0.061037987 245:0.069965489 246:0.069965489 247:0.069965489 248:0.069965489 253:0.050454061 254:0.050454061 255:0.050454061 256:0.050454061 257:0.018610934 258:0.018610934 259:0.018610934 260:0.018610934 261:0.025208553 262:0.025208553 263:0.025208553 264:0.025208553 265:0.019688554 266:0.019688554 267:0.019688554 268:0.019688554 273:0.055416036 274:0.055416036 275:0.055416036 276:0.055416036 277:0.019005172 278:0.019005172 279:0.019005172 280:0.019005172 281:0.027377501 282:0.027377501 283:0.027377501 284:0.027377501 285:0.021999303 286:0.021999303 287:0.021999303 288:0.021999303 301:0.025708763 302:0.025708763 303:0.025708763 304:0.025708763 305:0.018034017 306:0.018034017 307:0.018034017 308:0.018034017 373:0.022414295 374:-0.08306551 375:-0.004074214 376:0.047302671 377:0.055280879 378:-0.021165179 379:-0.024819149 380:0.064613096 381:-0.023728302 382:0.11406387 383:0.010421103 384:0.16051261 385:0.0042562764 386:0.02008632 387:-0.053125825 388:-0.033931006 389:0.039595835 390:-0.082059391 391:0.013620388 392:0.058020778 393:0.097453408 394:-0.030680789 395:-0.026133258 396:-0.0053649056 397:0.036271803 398:0.0047780047 399:-0.13251384 400:0.046050441 401:0.070730582 402:0.019017514 403:0.023649825 404:-0.064415768 405:0.082962491 406:-0.012390057 407:-0.084160842 408:-0.074200206 409:0.10497728 410:-0.00026504078 411:-0.075933076 412:-0.073610038 413:-0.00063431874 414:0.033611026 415:0.069814548 416:-0.11981421 417:0.033973854 418:-0.02386111 419:-0.0093586482 420:-0.052840181 421:0.029466117 422:0.045191798 423:-0.0061720312 424:0.038239066 425:0.098505206 426:0.1309703 427:0.032204594 428:0.047415577 429:-0.087980688 430:-0.019853529 431:0.042281732 432:0.093295187 433:-0.062418681 434:0.026971722 435:-0.0013322448 436:-0.016869564 437:-0.073497109 438:0.051596992 439:0.049194798 440:-0.039529044 441:-0.023594055 442:0.0066414769 443:0.011558942 444:-0.047791399 445:-0.047251452 446:-0.071016446 447:0.00077125785 448:-0.044987336 449:-0.035054009 450:-0.014634392 451:0.050228003 452:0.052231934 453:-0.0058027129 454:-0.018545719 455:-0.092093945 456:0.054199725 457:0.053637084 458:0.038800068 459:0.089545898 460:-0.016612593 461:0.046848416 462:-0.018938959 463:0.11316738 464:0.082588941 465:0.015365649 466:-0.027059749 467:0.0006917665 468:0.052876044 469:0.027391305 470:-0.065007694 471:-0.02850756 472:0.026912725 473:-0.015724327 474:0.016095897 475:0.071566246 476:0.054467183 477:0.053928435 478:0.068985172 479:-0.0040005553 480:-0.072047606 481:-0.0034543369 482:0.0084926309 483:0.12499868 484:0.15753715 485:-0.0030930049 486:-0.039186079 487:0.012410906 488:0.017801549 489:0.031203005 490:0.0037115158 491:0.0086404448 492:0.13936009 493:-0.018301183 494:0.095443375 495:-0.0060537988 496:0.16356845 497:-0.076528288 498:-0.015599576 499:-0.12730147 500:-0.024278341 501:-0.12902614 503:-0.022204999 504:0.045645241 505:0.042677883 506:-0.13813275 507:-0.021515112 508:-0.027940789 509:0.019249052 510:-0.066271678 511:0.15771186 512:-0.031804457 513:0.028625552 514:-0.049844977 515:-0.052592415 516:-0.042965706 517:-0.028721888 518:0.035650235 519:0.032335583 520:0.063622296 521:-0.0024111848 522:-0.079474814 523:0.081896082 524:0.09714707 525:-0.011903713 526:-0.060577579 527:0.056864757 528:0.012912366 529:-0.10114288 530:-0.049102943 531:0.023601383 532:0.043174583 533:-0.12437323 534:0.01626106 535:0.015862707 536:-0.0072675105 537:-0.038574886 538:0.10057773 539:-1.2225866e-05 540:0.11870368 541:-0.11144371 542:0.22537877 543:0.02028664 544:-0.011516698 545:0.057902083 546:0.0053849486 547:0.04354234 548:0.067708634 549:0.087381333 550:-0.020567646 551:-0.071936741 552:-0.061563879 553:-0.064971052 554:0.033557042 555:-0.01990303 556:0.025075072 557:0.0072258338 558:-0.017545901 559:0.0078441724 560:-0.039718274 561:-0.026640853 562:-0.033451814 563:0.0049953926 564:-0.08237794 565:-0.039174214 566:-0.00037539436 567:-0.0086577851 568:-0.089670375 569:-0.033437416 570:-0.0064214091 571:0.026107289 572:-0.036747675 573:0.029742146 574:0.048004046 575:-0.0071588415 576:-0.015050439 577:-0.047905494 578:0.10852031 579:0.09569703 580:0.017451782 581:0.031506792 582:0.034256503 583:0.0060821651 584:0.019234981 585:0.029986056 586:0.034344286 587:-0.01313687 588:-0.011498696 589:0.025869232 590:0.026860612 591:-0.072586067 592:0.0015239454 593:-0.01213017 594:0.059279129 595:-0.05211556 596:0.016469071 597:0.0014089746 598:0.061236635 599:0.021806227 600:0.033041976 601:-0.031905707 602:-0.054386236 603:0.018445533 604:-0.066981517 605:-0.086038895 606:-0.10278194 607:0.0064981682 608:0.012254027 609:-0.063994907 610:-0.069670983 611:-0.055638175 612:-0.062403057 613:-0.047124531 614:-0.074503474 615:0.043880876 616:0.033308767 617:0.021840299 618:-0.084295571 619:-0.035707224 620:0.074998476 621:-0.039105695 622:0.03568016 623:0.015272753 624:-0.03630513 625:0.0041724374 626:-0.096705586 627:-0.014531697 628:0.014015554 629:-0.0021454606 630:-0.010523404 631:0.014498925 632:0.0095903771 633:-0.059039783 634:-0.0010039558 635:-0.074651197 636:0.045328047 637:0.042465359 638:0.0017669995 639:0.0028381513 640:0.017721381 641:0.015675735 642:0.077918895 643:0.072610036 644:-0.05858377 645:0.022629997 646:-0.073420547 647:-0.045365278 648:0.050536446 649:-0.027494451 650:-0.024877729 651:-0.034323435 652:-0.009593077 653:-0.02039009 654:0.073034167 655:-0.11473776 656:-0.029536393 657:-0.066020742 658:-0.012637563 659:0.087723292 660:0.014747551 661:-0.026763869 662:0.047484245 663:0.19390182 664:0.015642058 665:0.054681368 666:0.048316151 667:0.1035188 668:-0.055818152 669:0.11048523 670:0.015757406 671:-0.039640039 672:-0.021486472 673:0.04132577 674:0.017140109 675:0.0043945247 676:-0.024059774 677:-0.023829518 678:0.056339212 679:-0.00327535 680:-0.056240425 681:0.012108067 682:-0.024675645 683:0.061416227 684:-0.12657873 685:0.073676698 686:0.12326203 687:0.056099106 688:-0.018885454 689:-0.045527823 690:-0.032043409 691:-0.018374214 692:0.024736987 693:0.068326883 694:0.024621682 695:-0.0014482497 696:-0.025854854 697:-0.001834977 698:0.038237192 699:0.013973796 700:0.029631685 701:-0.14183159 702:0.0085755326 703:-0.045795586 704:-0.043413199 705:-0.11560603 706:0.021220742 707:0.058934256 708:-0.1345977 709:0.019065097 710:0.02046138 711:-0.0090373177 712:0.0065170368 713:-0.0012865557 714:-0.043608751 715:-0.025067067 716:-0.0089596342 717:-0.099509925 718:-0.019108953 719:0.065809451 720:-0.059883907 721:-0.04451365 722:0.013780469 723:0.040590759 724:0.017655253 725:0.015441622 726:0.021630872 727:0.027193539 728:-0.039472014 729:0.07335975 730:0.10614917 731:-0.021454765 732:-0.065359414 733:0.032568038 734:-0.024208432 735:-0.064465284 736:0.0094928546 737:0.0013741389 738:-0.0049946541 739:0.035641115 740:0.081399433 741:0.026547296 742:0.010267299 743:0.18375973 744:0.0019152977 745:-0.020543752 746:-0.084297046 747:-0.0024229088 748:0.099613369 749:-0.071130894 750:-0.015288829 751:0.0082252761 752:-0.055260748 753:0.020480698 754:0.068976887 755:0.012504786 756:0.021880109 757:0.01454494 758:0.012573603 759:0.050080791 760:0.021217085 761:0.018833362 762:-0.047149051 763:-0.039043691 764:-0.047154348 765:-0.074613906 766:-0.0034800756 767:0.009553316 768:-0.014329232 769:0.058551852 770:-0.016164972 771:0.0042785574 772:0.01937337 773:0.010825368 774:0.0088721076 775:0.042902447 776:0.0083718682 777:0.05341164 778:-0.026822051 779:0.044025302 780:-0.11142991 781:-0.0350179 782:0.0014186782 783:0.052430633 784:-0.061422739 785:0.0090531716 786:0.082558058 787:-0.089055493 788:-0.063494362 789:0.036505081 790:-0.031269681 791:-0.095804922 792:0.045077369 793:0.064050682 794:-0.011963164 795:-0.050649282 796:-0.032699794 797:0.028551707 798:-0.065258615 799:-0.0073555433 800:-0.050897691 801:-0.096841291 802:0.098696522 803:-0.0080875205 804:-0.035639949 805:-0.054052398 806:-0.096113339 807:0.026680529 808:-0.047631513 809:-0.021073826 810:-0.040046647 811:-0.053604595 812:0.019126462 813:-0.042465653 814:-0.021336516 815:0.10655951 816:0.10836829 817:0.060336828 818:0.020431655 819:0.074170247 820:0.076486602 821:0.07147754 822:0.036491059 823:0.063786983 824:-0.068605505 825:-0.002638083 826:0.032227539 827:0.086919688 828:0.039791226 829:-0.0051397779 830:-0.13149911 831:0.067896873 832:0.011722791 833:0.049724519 834:-0.018760195 835:-0.0281731 836:0.008570048 837:-0.051700361 838:-0.028141517 839:0.1249895 840:0.048192866 841:0.10964356 842:0.14733666 843:0.048275448 844:0.012936726 845:0.049724538 846:0.094385907 847:-0.094760679 848:-0.014465719 849:-0.14134984 850:0.2153573 851:0.010966104 852:0.29412672 853:0.01378459 854:0.039984424 855:0.26326483 856:-0.074123658 857:-0.090038732 858:-0.12926398 859:0.046223108 860:0.18532015 861:0.085244097 862:-0.035407197 863:0.014937063 #
