SVM-light Version V6.20
0 # kernel type
3 # kernel parameter -d 
1 # kernel parameter -g 
1 # kernel parameter -s 
1 # kernel parameter -r 
empty# kernel parameter -u 
886 # highest feature index 
34 # number of training documents 
2 # number of support vectors plus 1 
0 # threshold b, each following line is a SV (starting with alpha*y)
1 1:-0.015415255 2:-0.0031094013 3:-0.013001754 4:-0.0031094013 9:0.013018855 10:0.010886449 11:0.010455322 12:0.010886449 13:0.061540384 14:0.038775627 15:0.029204562 16:0.038775627 21:0.017775575 22:-0.0038633968 23:0.0006805748 24:0.002324214 25:0.0078179725 26:0.017447598 27:0.0044094077 28:0.017447598 33:0.0084782289 34:-0.0087244269 35:-0.00044163526 36:-0.0030550752 41:-0.008018191 42:0.041090634 43:0.021773091 44:0.041090634 45:-0.024738032 46:0.011506031 47:-0.014588802 48:0.011506031 49:0.025195684 50:-0.00067856692 51:0.013935302 52:0.0060268966 53:0.030391216 54:0.018578595 55:0.022205435 56:0.018578595 61:-0.0015550804 62:0.027445087 63:0.037741158 64:0.027445087 65:-0.047965031 66:-0.024170669 67:-0.030560169 68:-0.024170669 69:0.047887947 70:0.023035476 71:0.03810985 72:0.024313111 73:0.019987604 74:0.014683435 75:0.020218972 76:0.014683435 81:0.0097243786 82:0.04971052 83:0.053372059 84:0.04971052 85:-0.017845662 86:0.002402619 87:0.00032062485 88:0.002402619 89:0.025576115 90:0.0005686151 91:0.015611753 92:0.0048819524 93:0.016467867 94:0.0043463716 95:0.011134362 96:0.0043463716 97:0.106183 98:-0.080094144 99:-0.087362379 100:-0.068955921 101:0.16543043 102:0.010800269 103:-0.083879404 104:0.010800269 105:0.087361783 106:-0.055488914 107:-0.0678147 108:-0.036292892 109:-0.090022519 110:-0.079197541 111:0.039141677 112:-0.078746945 113:-0.16381629 114:-0.16381629 115:-0.064998113 116:-0.16381629 117:0.070562378 118:0.023472121 119:0.056986198 120:0.03880823 121:0.057324033 122:-0.032080892 123:-0.050867081 124:-0.031821646 125:0.083090276 126:-0.071539894 127:-0.096922219 128:-0.071539894 129:0.062106099 130:-0.067727186 131:-0.0764658 132:-0.06663616 133:0.032263517 134:-0.0073652673 135:-0.057343371 136:-0.0073652673 137:-0.023350816 138:-0.031291451 139:-0.010715904 140:-0.022730272 141:-0.044621296 142:-0.044070657 143:-0.027437309 144:-0.042649064 145:0.14096029 146:0.12466193 147:0.14419085 148:0.12484084 149:0.11593971 150:0.068354167 151:0.10932486 152:0.069066487 153:0.029525468 154:-0.0080960607 155:-0.040910877 156:-0.0080960607 157:0.09982606 158:-0.034399156 159:-0.045687813 160:0.0038248359 161:0.12206601 162:-0.048160605 163:-0.05378823 164:-0.046773974 165:0.086145081 166:0.002632539 167:0.042560168 168:0.029310405 169:0.076247543 170:-0.087558851 171:-0.013891824 172:-0.080352224 173:0.041824181 174:-0.012518181 175:-0.052757189 176:-0.012518181 177:0.071840696 178:0.03092235 179:-0.025693912 180:0.026075078 181:0.11415607 182:-0.013590346 183:-0.011609208 184:-0.013470661 185:0.085662529 186:0.077087864 187:0.088576972 188:0.091740541 189:0.034640588 190:-0.058848813 191:0.017494265 192:-0.055977017 193:0.02435586 194:0.02435586 195:0.02435586 196:0.02435586 197:0.019793717 198:0.019793717 199:0.019793717 200:0.019793717 201:0.069524288 202:0.069524288 203:0.069524288 204:0.069524288 205:0.080180511 206:0.080180511 207:0.080180511 208:0.080180511 213:0.01671206 214:0.01671206 215:0.01671206 216:0.01671206 217:0.02506032 218:0.02506032 219:0.02506032 220:0.02506032 221:0.056904983 222:0.056904983 223:0.056904983 224:0.056904983 225:0.074374266 226:0.074374266 227:0.074374266 228:0.074374266 233:0.024107745 234:0.024107745 235:0.024107745 236:0.024107745 237:0.025245115 238:0.025245115 239:0.025245115 240:0.025245115 241:0.066018306 242:0.066018306 243:0.066018306 244:0.066018306 245:0.073072091 246:0.073072091 247:0.073072091 248:0.073072091 253:0.053033981 254:0.053033981 255:0.053033981 256:0.053033981 257:0.019562587 258:0.019562587 259:0.019562587 260:0.019562587 261:0.023212055 262:0.023212055 263:0.023212055 264:0.023212055 265:0.017506583 266:0.017506583 267:0.017506583 268:0.017506583 273:0.058249682 274:0.058249682 275:0.058249682 276:0.058249682 277:0.019976983 278:0.019976983 279:0.019976983 280:0.019976983 281:0.026482778 282:0.026482778 283:0.026482778 284:0.026482778 285:0.020909803 286:0.020909803 287:0.020909803 288:0.020909803 301:0.01918906 302:0.01918906 303:0.01918906 304:0.01918906 305:0.011721616 306:0.011721616 307:0.011721616 308:0.011721616 373:0.022118134 374:-0.083226949 375:-0.0036273682 376:0.0437207 377:0.057733845 378:-0.017620185 379:-0.016119767 380:0.056386005 381:-0.0086203739 382:0.11203016 383:-0.003962154 384:0.16003183 385:0.011386623 386:0.037170466 387:-0.035622276 388:-0.037402827 389:0.045243446 390:-0.066298015 391:0.014492122 392:0.047229562 393:0.062871374 394:-0.030302579 395:-0.011599796 396:0.010431581 397:0.048123542 398:-0.0052908044 399:-0.1096794 400:0.048412923 401:0.08080592 402:0.016348405 403:0.029737506 404:-0.059155911 405:0.093557835 406:-0.020922573 407:-0.065854408 408:-0.065250918 409:0.086611912 410:-0.0014215611 411:-0.066603877 412:-0.063605085 413:-0.028051199 414:0.023659654 415:0.068540119 416:-0.13325331 417:0.017066754 418:-0.024480266 419:-0.017409675 420:-0.035690874 421:0.021431718 422:0.047634017 423:-0.011229655 424:0.042505588 425:0.10432225 426:0.11143136 427:0.039403405 428:0.029129494 429:-0.1078911 430:-0.0035176999 431:0.024230523 432:0.069663852 433:-0.057949994 434:0.017105855 435:0.019433526 436:-0.02773967 437:-0.073365822 438:0.027850568 439:0.04266125 440:-0.031158281 441:-0.013085595 442:-0.0020138547 443:0.021698393 444:-0.062096864 445:-0.035691194 446:-0.053637203 447:-0.0090374872 448:-0.036541793 449:-0.047352504 450:-0.027227601 451:0.046459798 452:0.061394084 453:-0.020963019 454:-0.015841331 455:-0.10307477 456:0.056466699 457:0.041830003 458:0.069238946 459:0.07935638 460:-0.01355465 461:0.061963096 462:-0.0098740151 463:0.092282608 464:0.075535662 465:0.026474077 466:-0.020102758 467:-0.0063376944 468:0.050717555 469:0.024171656 470:-0.057664152 471:-0.034670644 472:0.033651538 473:-0.008914087 474:0.02879942 475:0.077210821 476:0.060346588 477:0.056384649 478:0.077292643 479:0.032943387 480:-0.055299331 481:-0.0085667325 482:0.041363366 483:0.11681616 484:0.15023059 485:0.042001292 486:-0.015599624 487:-0.015032269 488:0.011541093 489:0.010480738 490:0.0033696524 491:0.0057611973 492:0.13226381 493:-0.035954621 494:0.092544727 495:-0.0018717655 496:0.14053175 497:-0.093027093 498:-0.014267197 499:-0.12926282 500:-0.020213539 501:-0.12099076 503:-0.026853774 504:0.054767963 505:0.041617241 506:-0.15354337 507:-0.0098085077 508:-0.020052098 509:0.013582734 510:-0.082325526 511:0.15009937 512:-0.010397531 513:0.04269129 514:-0.040481284 515:-0.041676052 516:-0.058489028 517:-0.023966219 518:0.031713046 519:0.016320338 520:0.067882568 521:0.0077869324 522:-0.059315328 523:0.099856637 524:0.09858641 525:-0.019020597 526:-0.032955475 527:0.056129314 528:0.025051503 529:-0.10955606 530:-0.048253879 531:0.055204023 532:0.023808464 533:-0.12666278 534:0.012319203 535:0.011595393 536:0.0029840402 537:-0.048189454 538:0.096012853 539:-0.011248176 540:0.10180501 541:-0.11964016 542:0.21409203 543:0.0074476302 544:0.0019548154 545:0.048600905 546:0.034013357 547:0.049605541 548:0.055260219 549:0.070188895 550:-0.027639344 551:-0.070290565 552:-0.059001785 553:-0.044941541 554:0.042593919 555:0.012939508 556:0.01181478 557:0.0090537192 558:-0.01041121 559:0.003593253 560:-0.051619258 561:-0.024606029 562:-0.038111843 563:0.0069696871 564:-0.10565261 565:-0.044924427 566:-0.0018520203 567:-0.014858 568:-0.093796305 569:-0.023778852 570:0.00077195256 571:0.036944121 572:-0.032777943 573:0.027936703 574:0.038779952 575:0.0020929789 576:-0.027336156 577:-0.034868874 578:0.11229671 579:0.095623419 580:-0.0010497334 581:0.029872779 582:0.013751329 583:-0.0089646066 584:0.011951282 585:0.031110054 586:0.043121785 587:-0.01115603 588:-0.014242296 589:0.0092747016 590:0.031810749 591:-0.084668726 592:-0.0022580421 593:-0.0092961686 594:0.058565646 595:-0.06977421 596:-0.0047972095 597:-0.027255623 598:0.067365073 599:0.015442346 600:0.020201256 601:-0.020941356 602:-0.047117587 603:0.03377267 604:-0.046575416 605:-0.082892597 606:-0.10582352 607:0.0047906609 608:0.014170862 609:-0.052067161 610:-0.065410279 611:-0.053461589 612:-0.049016356 613:-0.051295381 614:-0.069506526 615:0.051255506 616:0.025750373 617:0.021022554 618:-0.076842323 619:-0.059014753 620:0.068623222 621:-0.02206267 622:0.046550993 623:0.015864177 624:-0.047081012 625:0.0049417694 626:-0.083983891 627:-0.020003609 628:0.027834561 629:-0.0018482294 630:-0.013228358 631:0.026070628 632:0.020684456 633:-0.048111942 634:0.014318526 635:-0.089597918 636:0.041878149 637:0.035905048 638:0.015418421 639:0.00068943331 640:0.0030843571 641:0.0065291668 642:0.068751618 643:0.080072179 644:-0.05829712 645:0.037277903 646:-0.054242149 647:-0.044454612 648:0.048108611 649:-0.029497776 650:-0.022334445 651:-0.048979849 652:0.0085933134 653:-0.022056904 654:0.056767326 655:-0.10638814 656:-0.012427921 657:-0.061471894 658:-0.013629652 659:0.067564055 660:0.026165478 661:-0.02313328 662:0.030792611 663:0.17325445 664:0.031261884 665:0.060582932 666:0.044819146 667:0.077273495 668:-0.060254157 669:0.11590028 670:0.024399173 671:-0.040938217 672:-0.043274708 673:0.043358136 674:0.026589517 675:0.025303924 676:-0.035432767 677:-0.037249196 678:0.040775914 679:0.020799669 680:-0.069127642 681:0.016675241 682:-0.021867214 683:0.08200822 684:-0.12042115 685:0.065403841 686:0.10475445 687:0.051024962 688:-0.017814288 689:-0.040249817 690:-0.02448117 691:-0.013463315 692:0.0060199858 693:0.075136319 694:0.017237086 695:-0.0057111015 696:-0.024686996 697:-0.0004286232 698:0.033026025 699:0.017317865 700:0.044049237 701:-0.13961999 702:0.0043587405 703:-0.048753973 704:-0.03413092 705:-0.11169288 706:0.01272882 707:0.066645771 708:-0.12565795 709:0.010872192 710:0.028162874 711:-0.0047302074 712:0.005802264 713:0.0062290393 714:-0.044371434 715:-0.014055742 716:0.0027776498 717:-0.072989188 718:-0.03850586 719:0.048965827 720:-0.076600567 721:-0.052946929 722:0.025958734 723:0.030017002 724:0.027480861 725:0.024645651 726:0.021511251 727:0.019198868 728:-0.045275778 729:0.06173858 730:0.10935276 731:-0.015842071 732:-0.06782461 733:0.026482077 734:-0.042069126 735:-0.074022584 736:0.0038339961 737:-0.020706942 738:-0.011066018 739:0.050044514 740:0.085521691 741:0.041567974 742:0.0089793075 743:0.17843018 744:-0.012021298 745:-0.0095195072 746:-0.08472684 747:-0.0014768194 748:0.097098149 749:-0.074390084 750:-0.014771838 751:0.01416727 752:-0.04132333 753:0.026201881 754:0.067108959 755:0.019853743 756:0.030045079 757:0.027477469 758:0.013704655 759:0.043233443 760:-0.0092747118 761:-0.0057176976 762:-0.031274769 763:-0.039735883 764:-0.05334679 765:-0.070978999 766:-0.016917193 767:0.0018188916 768:-0.034245566 769:0.064305402 770:-0.012279747 771:0.0034259933 772:0.042918582 773:0.0028763893 774:0.0078263367 775:0.037658844 776:0.0038624266 777:0.076249897 778:-0.022955569 779:0.052087575 780:-0.11281975 781:-0.037298348 782:0.00091559801 783:0.032568302 784:-0.067631431 785:0.016133791 786:0.086187847 787:-0.088556185 788:-0.076152712 789:0.011979181 790:-0.026408467 791:-0.10823851 792:0.048477691 793:0.049397461 794:0.0062898435 795:-0.055102423 796:-0.036627237 797:0.028994234 798:-0.063685507 799:-0.0031974996 800:-0.052167345 801:-0.11312486 802:0.075544335 803:-0.037627954 804:-0.039989114 805:-0.051790949 806:-0.099394456 807:0.010266206 808:-0.046184391 809:-0.028031865 810:-0.035332281 811:-0.076303929 812:0.030328747 813:-0.049512699 814:-0.033997834 815:0.1052658 816:0.1053582 817:0.060919166 818:0.0063850838 819:0.041077748 820:0.044479046 821:0.05481787 822:0.0060547953 823:0.040215973 824:-0.070069209 825:-0.00027949346 826:0.023259746 827:0.057808999 828:0.026236033 829:-0.008304867 830:-0.15215023 831:0.034104474 832:-0.0075230356 833:0.03166049 834:-0.031800315 835:-0.055316444 836:0.0036237212 837:-0.055123352 838:-0.052529734 839:0.14652793 840:0.050311353 841:0.11237554 842:0.11438625 843:0.049477234 844:0.015083876 845:0.055216588 846:0.055138003 847:-0.09027312 848:0.0025568015 849:-0.12688661 850:0.21261127 851:0.043523688 852:0.25559461 853:0.021670472 854:0.051484458 855:0.20041764 856:-0.069070362 857:-0.010425775 858:-0.12551184 859:0.016757565 860:0.18463087 861:0.10786376 862:0.023644293 863:-0.0090868846 864:-0.03340929 865:-0.032681707 866:-0.032268748 867:0.093870565 868:-0.030431321 869:-0.052069597 870:-0.035481233 871:-0.027642867 873:-0.037694857 874:-0.04050969 875:-0.034545522 876:-0.029273383 877:-0.034196246 878:-0.032491058 879:-0.032281261 880:-0.032568775 881:-0.033089731 882:0.022954108 883:0.00082426489 884:0.012342065 885:-0.012131243 #
